solver_type L2R_L2LOSS_SVC
nr_class 2
label 1 -1
nr_feature 6084
bias -1
w
0.007696091774235326 
-0.08141342999610582 
0.008102846029563033 
-0.0007633661057552396 
0.01200748840966843 
-0.007668538047758846 
-0.01051103256500325 
-0.009790088465875695 
0.009690334937889969 
0.00717787562355666 
-0.01904726763451208 
-0.0005077514533321378 
0.003195176867081258 
0.008636755991626839 
-0.1436209959233776 
-0.009483632111337166 
-0.006180875332457805 
-0.002032430462318562 
-0.006963388213435811 
-0.008135928333494035 
0.002722953537794699 
-0.03075733795877496 
0.01778180878679509 
-0.06914876358746144 
-0.0004583796885311317 
0.008777667578755774 
-0.00166830471404436 
-0.03069481488471046 
-0.002937141451748212 
-0.001468717040396817 
-0.0005095994556507142 
-0.003833616940247637 
-0.02634730101620608 
-0.02184920036410275 
0.01824838049793482 
0.01448865937984368 
0.01237381733873357 
-0.0160204507050684 
0.004207665442647679 
0.006100712686284922 
0.01244993433236147 
-0.1673636177688515 
-0.005348787833734319 
2.743233363088136e-005 
8.775565958128186e-005 
-0.005843829668432311 
-0.04870867761660393 
-0.01299483103630894 
-0.006943628684183895 
0.01288765068411882 
-0.01809514477840698 
-0.005824478703668922 
-0.02254100140038516 
-0.0006933050085339738 
-0.02827249010856061 
-0.0001992165044033213 
0.00100638451981254 
0.0007738346406405889 
1.183724779233136e-005 
-0.02362004783797454 
-0.01878302005028883 
0.03142201399049056 
0.01249450454040963 
0.008713408110398424 
-0.02213383044956039 
0.004020112718133096 
0.009997610328457477 
-0.004623702465290309 
-0.01243370495123886 
-0.02062741174758506 
-0.02113057933570453 
-0.003104119615131934 
0.002442231375121569 
-0.03006130941759466 
-0.007328871622859574 
-0.0006972181439987887 
0.02062260295594155 
-0.01069459625498836 
0.0004829557292389737 
-0.009823808346363275 
0.006879703968892796 
-0.0008870944342987598 
-0.01970487471360364 
-0.0397374894224414 
0.003016237745490019 
0.01310369803883868 
-0.04164407384764159 
-0.01617241017493885 
-0.02102883618647487 
0.02202942413656333 
0.01826816057379465 
-0.01579604469303374 
0.00781882569274118 
0.01132210802548595 
0.002459553378089821 
-0.007288286469982638 
-0.0139314798302021 
-0.006060503038788012 
0.0066444974062835 
0.02380355292177643 
0.00388565446898313 
0.005142259437467954 
0.005137147253823689 
0.005662547555716605 
0.002048019048984194 
-0.02415884958025913 
-0.01333341478573787 
0.004745260592629704 
6.922141052336395e-005 
-0.01801149616988176 
-0.02416399037205824 
0.004207050253007554 
0.01404445250705637 
-0.03211880485401102 
-0.007596464436545136 
-0.01480958826540802 
0.02520527714509397 
0.03044379724598665 
-0.02812607215519723 
-0.02448029415111096 
0.03086674745999792 
0.03974247063852023 
0.04181862310127189 
-0.009043368504164212 
-0.009465430848904525 
0.02135875008749879 
0.02443043047681756 
0.004669848409023084 
0.01017072954926225 
0.007198550542180464 
0.01311132320934154 
0.006688532611001192 
-0.01947228182621145 
-0.005631033288264658 
0.007208944852618342 
-0.0001426162557207813 
-0.007269413699947633 
0.007258935957943965 
0.01473809685415345 
0.0250213264966581 
0.006784210377658267 
-0.02319597220645816 
-0.01618791927234223 
0.01528506209897013 
0.02350288824588539 
-0.02484422600667578 
-0.03977828064216849 
0.03291532583962476 
0.03952099529254715 
0.03459168407608512 
-0.01261606539206017 
-0.01183021429378281 
0.02022200203528995 
0.003271802546248722 
-0.03392072314276822 
-0.01006201557581023 
0.001327978730050406 
0.006349371609476662 
0.01054330411972874 
0.01540997670365205 
0.009253175722303669 
-0.009385377318897064 
-0.002300925746192102 
-0.007760000815856399 
0.007410722346220182 
0.01276743090150426 
0.02219699439261361 
0.005981466799010905 
-0.0194710791388345 
-0.02403552559335544 
0.01259607560991572 
0.03497134648444299 
0.01750283174518893 
0.008726691530862188 
0.01239319288900422 
0.02447832074736413 
0.02255173798402663 
-0.02016323468880308 
-0.0157285043220635 
0.01423657242093501 
0.0007572306856348321 
-0.03752180574661436 
-0.01331878887462179 
0.005158331880047939 
0.01303204868258987 
0.009104675617505973 
0.01497224324317448 
0.007555979145175978 
-0.009806775858961305 
0.04104337811789514 
-0.006188258497251468 
-0.0527730617163323 
-0.001988130177678589 
0.002268513517873596 
0.021426521749281 
0.02021811336927753 
-0.005997986798964553 
0.01616979323008676 
0.03326931477532424 
0.0166830096050211 
0.006629963359456782 
0.009489998227186299 
0.02575476927762434 
0.0240372812289761 
-0.01975681999481731 
-0.01607931019930103 
0.016732317760905 
0.0002600672030281886 
0.002604467170435985 
0.01329367955800806 
0.01843865179324766 
0.003704939620477319 
-0.001930890103656283 
-0.03217102686446462 
-0.004077908442313125 
-0.01219303766670871 
0.04596308351578746 
-0.005411499677867298 
-0.03285616395689762 
0.00310134653889004 
0.007530936861085395 
0.0282280439394388 
0.02343159558728693 
-0.003712944136533704 
0.01809907231568969 
0.01816461591942422 
0.003465918665530694 
-0.01201670693043882 
-0.005866867750930599 
0.01447771906180859 
0.01273523529094392 
0.01872448112458218 
-0.01202143950089019 
0.02301302645597172 
0.005702857131959145 
0.007833570903471348 
0.02054379545024281 
0.02196355612398699 
0.01109121969827523 
0.002267398950469833 
-0.02987885095334847 
0.0004283072375907059 
-0.006829920393067873 
-0.01399660747127057 
-0.001969541257853167 
0.005065196322626623 
0.003033783849829467 
0.006155159521375223 
0.005589863461825708 
-0.01593740684213847 
0.01813263465070073 
-0.0157065460514827 
0.02064465645095972 
0.004966542632274371 
-0.01050879158012332 
-0.002818449281421036 
0.0167110823908561 
0.0140639246907487 
0.02398854813057423 
-0.01092056661042382 
0.02506944158197829 
0.01919669899446231 
-0.0009380705391308597 
-0.003323538241353879 
-0.002356783340493356 
0.003559707006003552 
-0.003728790163896258 
-0.008690964643863618 
0.02253394370326118 
-0.01976764783287452 
-0.01090451916905394 
0.002183838209964923 
0.008390056911037214 
0.008330612852512666 
0.01028955284286073 
0.009074024993059076 
-0.01674337636501599 
0.01946035820622954 
-0.01260316071767342 
0.009626268843004571 
-0.01220676664903611 
0.01359155648328621 
0.00124095139804492 
-0.002830313356177194 
0.003783637696160706 
-0.01312728890829475 
0.02418934591067413 
-0.01988410005585298 
0.02492016607191596 
-0.001091668403561471 
0.001165016966299387 
-0.0003582635542947461 
0.005030326274803575 
-0.00265204822979714 
-0.00727369012231731 
0.02017710409155003 
-0.01981106121076529 
0.01740653487689935 
0.005286400265746183 
0.00365598681935935 
0.01206102660270375 
-0.003294880601855639 
-0.004295839034127696 
-0.005437633936972414 
0.02283523233459497 
0.01409720824125994 
0.01139091085950404 
-0.01030557097760674 
0.01282033422991083 
0.003404954154901312 
-0.0009211117690147829 
0.005367844564834782 
-0.01384912415414304 
0.02561061352963278 
-0.01984714336925419 
0.0004010084626378744 
0.02314853581638299 
-0.01174026484262037 
0.000700912218776028 
0.02964551851403816 
0.003944570509779907 
-0.01707991013903682 
0.00976628717228235 
-0.006368741215263232 
0.01694377716869094 
0.004265818552331793 
0.006100178238679717 
0.01696208331052888 
-0.004212862105690378 
-0.004116388955186369 
-0.007699219134287248 
0.02359757558912419 
0.01313476644680893 
0.02492196341973126 
0.01438091226325235 
0.01805998713289881 
0.005887210897697563 
0.02106459188072202 
0.01351069577936142 
0.002162130440981842 
0.0100905666962943 
-0.00731234713238474 
-0.000339627084267788 
0.01354889671401351 
-0.01321224433563436 
0.0005270405472224267 
0.03078979645566536 
0.00281865764774212 
-0.01889714922124437 
0.009046621936279668 
-0.007380130393930795 
-0.04493611293313377 
-0.007734256696236492 
-0.006622908940010499 
-0.007125202001535044 
0.0226080905274193 
-0.01523064445675075 
-0.01069647830933499 
0.02034819256604033 
-0.004402725421275605 
0.01550355350792691 
0.007300550275836672 
0.01198372686434244 
0.0004873169522984415 
0.01709919107416073 
0.006680841399972876 
-0.004263373030187622 
0.003714976683343995 
-0.01231309399804349 
0.02137371724462192 
-0.002303448469725355 
0.01161352547808623 
-0.004612040356258243 
0.02108325493100516 
0.008843212967177317 
-0.004942719048266853 
0.006812043910881385 
0.01622726270159119 
-0.05054076181049727 
-0.01033556054288757 
-0.01806789071703423 
-0.01387861423007794 
0.01408721008608847 
-0.02186755821186917 
-0.01526072460933189 
0.01391976458276763 
-0.01164554817332922 
-0.001168386744134197 
-0.002187545339695085 
0.0009835370522483906 
-0.01299928831759308 
0.02596167729986792 
0.001727396550927601 
-0.008223756088107867 
0.01173587099995818 
0.03005067271499917 
0.01460628293507817 
-0.009947993958679464 
0.01103163324272122 
-0.01100702343181698 
0.01465765618069842 
0.002442371283725291 
-0.01611267508432671 
-2.769378363851331e-005 
0.01894910951420272 
0.01816055480637503 
-0.007463186427552563 
0.008694015570480237 
-0.02132823935389407 
0.02442080005545374 
-0.007230312694473639 
-0.02390039793295604 
0.007287631003330088 
0.009747049350785565 
-0.01226945164608441 
-0.003934390437254781 
-0.007324000141651509 
-0.01668559807511028 
0.01815328549546391 
-0.002073619258281381 
-0.0120810473712578 
0.004523468694902937 
0.02426137412005295 
0.016974374748094 
-0.001584038466830125 
-0.0111033060884094 
-0.005861059294731956 
0.02064842350642991 
-0.007709641971159532 
0.0006415347126788671 
0.004366733674506955 
0.01418912366081838 
0.01223660596247762 
-0.01018826788040846 
0.004066775199516166 
-0.02726529786566162 
0.01902874295714135 
-0.01240541848777311 
-0.02746151663831065 
-0.001092525671220315 
0.005580988826455374 
0.02087027831690176 
-0.006049015222936644 
0.00752389939907664 
-0.01124022673584465 
-0.01271251394116912 
0.004949149186629815 
-0.01874173659689285 
-0.01076000345199545 
-0.002590038523581199 
0.01101262157783045 
-0.004168215400568206 
-0.01427281738171082 
-0.01142018161392714 
0.01570806975920294 
-0.01377034235631355 
-0.001665987745180712 
-0.002882171088646364 
0.004761056881811394 
-0.01528139035324717 
-0.02431383313347174 
0.006864957778024146 
-0.005203842671597275 
0.002380198504165711 
0.007946950303262692 
-0.00128915081332125 
0.01949199173340795 
-0.006946067673740627 
-0.003617943850959017 
-0.006214110248586735 
0.008088532657706329 
-0.01933310139773633 
0.02045522834633628 
-0.06630086823278172 
0.003111888181703787 
0.01417352926278287 
0.001478974556322284 
-0.02817066247983668 
0.0002095010795365817 
0.001078661363590927 
4.944050341703895e-005 
-0.001000839243082991 
-0.02394548863789404 
-0.01887556017070798 
0.02247536052269425 
0.01011389477258366 
-0.005121126074339388 
-0.01074456899063871 
-0.002781851161486967 
-0.05664343065394388 
-0.02098166824074414 
-0.01907723916420822 
-0.00796674649044191 
-0.008642793759975459 
0.008449604653315616 
-0.04163011919805762 
-0.01700750346719267 
-0.005320964780419961 
0.005070791799291493 
0.01023886897521821 
-0.008718038652264736 
-0.004731307905804289 
-0.001838337965705505 
-0.01574138176074836 
-0.0283730959350789 
0.0005967743511891211 
0.001157390007741197 
0.002684342902525152 
-0.0006520507665576544 
-0.02406163625584729 
-0.01880048026479254 
0.02348980357763447 
0.01751979502737182 
0.007189336876408202 
-0.0240603618964294 
0.003480331532526105 
0.01195140129010938 
-0.005508078587076105 
-0.01257723523455428 
-0.02080626655927232 
-0.02005528467100989 
0.0001214137866817237 
-0.04160563191592862 
-0.01688512034584155 
-0.005191880702824686 
0.006962541266703731 
0.01110417310711548 
-0.008755952182038522 
-0.004422647785036373 
-1.360844726779379e-005 
-0.01616078640691786 
-0.0441118176272805 
-0.01856317801375849 
-0.01149457007223417 
-0.000889752449258692 
-0.04617778329692159 
-0.009563743319976635 
-2.672274203387322e-006 
-0.002548549051033933 
-0.006302062922656725 
0.01268673941375366 
-0.01991715652345194 
0.005727044494782785 
0.01062123956972475 
-0.001408165833697999 
-0.00954302888964194 
-0.01696658584700019 
-0.01285428038466512 
0.004756631774893767 
0.02089228576416603 
0.0002754637143120756 
0.00186772297975396 
-0.0001457656626435207 
0.001538203146505257 
-0.002049809020624247 
-0.02305775257256694 
-0.0169613778440708 
0.004732823216993141 
-0.04043132294320598 
-0.01456825456229511 
-0.008031726552470647 
-0.001298171104433614 
-0.04201342823576341 
-0.005270427149136661 
0.002385986527070755 
0.0002526804883902691 
-0.004469983006293111 
-0.02364994927949721 
-0.04248635066140093 
-0.006115905460977325 
-0.01305818076776032 
-0.03235225378871516 
-0.001603162807833251 
0.01032867422659673 
0.02782754900069745 
-0.004508441498911351 
0.02233802381850187 
0.00113510256730865 
0.002145270434028607 
0.003337625783792516 
0.006136375370307819 
0.001090596914571194 
-0.03330044026130195 
-0.01045211005692209 
0.002485801317647 
-0.003383258575086995 
-0.01004304770608404 
0.0004464645325492492 
0.008467170466293401 
0.02143702690561842 
0.00306328398016754 
-0.02999481654067812 
-0.01993918888564263 
0.01216120263469976 
-0.02181720008651363 
-0.03636482150082734 
-0.003956091849404935 
-0.006209348930819099 
-0.03127190667038669 
0.004800481399610646 
0.01119932673244588 
0.005372138951997989 
0.002122990377428118 
-0.009167838490999421 
-0.02303840609824891 
-0.000922522509013055 
-0.00548166321454834 
0.002202009490350615 
-0.02470523746414092 
0.01429509511420134 
0.001144668084885952 
0.008422135200543935 
-0.001780163348349659 
-0.009314038172941144 
0.00140714691249551 
0.0108712341422101 
0.025139537266351 
0.004751032136246413 
-0.02631062466838062 
-0.01266540246337808 
0.01372560446188262 
0.03474507575409385 
0.0197186251833217 
0.001616621053126672 
0.001292262667525562 
0.01601525361455706 
0.02805943005730233 
-0.02853912610244662 
-0.01201471396382995 
0.02005168856066977 
-0.005901186662006844 
-0.02056689291902798 
-6.352661586182611e-005 
-0.005480315081081422 
0.002090285779276057 
-0.02094883997927731 
0.01597340426439807 
0.003498488583196081 
0.00682459312525271 
0.06202221407665186 
0.005362224517114653 
-0.002572942551254973 
0.008443060348766088 
0.008509848889490287 
0.01930192466675049 
-0.002767663840345548 
-0.0006054250825442006 
0.003137027376346933 
0.03914605460211495 
0.01691960450255027 
0.0032126292806473 
0.007315814692411726 
0.02880408493199929 
0.02877138704644747 
-0.0210601469512284 
-0.01092623225241734 
0.02208212093435602 
0.003363903662861705 
0.002103508437968466 
0.01644888964863564 
0.008527254361904067 
0.009784717151752576 
1.200289449847778e-005 
-0.03457346938469207 
0.0002028345818399808 
-0.0097510997890597 
0.0487708111031401 
0.005943289859792828 
1.546840887769389e-005 
0.009696022051283237 
0.00722981906742996 
0.03442022072128444 
0.002685620643769503 
0.003935911866161305 
0.0008482811914983489 
0.008870843354862002 
-0.02201076850277239 
-0.007038464467319991 
0.009046984809178826 
0.008797994228065981 
0.003306593710206378 
-0.003057704177019522 
-0.009051060254041949 
0.001752419053219463 
0.008395543125571321 
0.005830829407024325 
0.02818166622189124 
0.02476401160156008 
0.01575336457244374 
0.003673033143187214 
-0.03106594706675002 
0.001357102350474032 
-0.006822409872013584 
-0.01303321073432085 
-0.004898706890776264 
0.003628666926315026 
0.001196543584926868 
0.008955271483602976 
0.008343126550486692 
-0.01506071084870556 
0.008561502519622122 
-0.01316227653906882 
0.0107316546574725 
-0.02208485482292397 
-0.00604976339295018 
0.01279753070029517 
0.02067557176586777 
0.007716664789477423 
0.006204889276624895 
-0.007340213170117924 
0.002300818051864071 
0.009373039118302043 
-0.005916639418856912 
-0.002526891802576811 
0.0125703687708466 
0.01437676158144408 
0.00403284171604217 
0.005507583427235122 
-0.0007244994530140349 
0.008449701759330061 
-0.01238469919891733 
-0.003692342196481169 
0.003962707653129758 
0.005477913048318718 
0.01157485840575314 
0.01053943990270176 
-0.01823412064431017 
0.01267607692500062 
-0.01293154295308006 
0.008317471422884378 
-0.01096633441503725 
0.005634684019715508 
0.0005616252136177241 
-0.003744145702777875 
0.00392068029318009 
-0.01474378087440801 
0.02342045266046272 
-0.01878578751013322 
0.009684440215517448 
-0.005907012550754262 
-0.0024354811377761 
0.02137917899047516 
0.01890878958012267 
0.003998879651586441 
0.00684366887659574 
-0.0007014799064528966 
0.008696787557569094 
0.004401236778114524 
0.01274731122994717 
0.0002452388421065436 
-0.006862234028246733 
-0.004072076563421327 
-0.01137469598419558 
0.003797101474880094 
0.005274745056404869 
0.004794420035265649 
0.01608801436249084 
-0.001313021441268121 
0.009875379516325595 
0.004465651449896316 
-0.0001983415867951333 
0.01569452380562588 
-0.01090176430836601 
0.02812097788741019 
-0.01562993258978686 
0.001535180179569324 
0.009533992686340803 
-0.0019740625660066 
0.00380510815126611 
0.03279939153473002 
0.00635696511057992 
-0.01399664418708983 
0.01293155200923605 
-0.001309932088622417 
0.009797157991865473 
0.01788522787794892 
0.006894983660426695 
-0.003431408257892473 
-0.0007854989480308497 
-0.008224056715814773 
0.00992392601545182 
0.01020076333152589 
0.01091171502331844 
-0.0117299910482301 
-0.00331724251044257 
-0.01106358909981017 
-0.06319431534665627 
0.0001570259839312812 
-0.009039757068578069 
0.00411791175886733 
-0.01228006583259818 
-0.01747012701337347 
0.006558451351911609 
0.01057959844895147 
0.004116129670874429 
0.007342801687449101 
0.03955508729020294 
0.01133187607399826 
-0.01032804683872937 
0.01834126752461454 
0.006277873674371369 
-0.02841023206557611 
-0.001583794912287022 
0.003469329732747567 
0.001916502070506225 
0.03553382670566844 
-0.005113258974307925 
-0.003062918895523933 
0.03057688226356932 
0.007430048791141935 
-0.007683136280291812 
0.00315058201952763 
-0.005322435179502138 
-0.05542196198411766 
0.003877355994475042 
-0.004153190081415712 
0.008971101294543383 
-0.007765434651775127 
-0.01453003962301925 
-0.02928310762002905 
-0.004305559647469459 
-0.007978637990398324 
-0.004539940501583772 
0.01880397767355951 
-0.03184125388823351 
-0.01266578364785547 
0.0136399169583989 
0.006427846693495916 
-0.03592990285426612 
-0.005300067378906616 
-0.001648053537990131 
-0.002217684665410834 
0.02913358584328892 
-0.01072785435996204 
-0.007532989395158737 
0.02481891865233944 
0.001381361892188254 
0.01060308115632097 
-0.0002457706945382361 
0.006895262257521135 
-0.006747023104124934 
0.03976220351619286 
0.005837589587445368 
-0.001981023663928916 
0.02249182395741007 
0.0383821015879286 
-0.03581874043066876 
-0.01125058277089525 
-0.01569611447408724 
-0.01337611463294249 
0.01583946089951231 
-0.04236421859669382 
-0.01793477268333928 
0.008012824795170933 
-0.001900999387252842 
-0.01760681925351186 
0.01736463332383883 
-0.006111703470339328 
0.01289543962464965 
0.02347891257914763 
-0.05709487359967776 
-0.00782971899397669 
0.01258771973284908 
0.0196595907011212 
0.001413769527088885 
-0.001855264351482412 
0.0008409119052957749 
-0.0108081732540036 
0.03038848541530157 
0.002207206647113988 
-0.006589308160905109 
0.01554694842635662 
0.0330645147998575 
0.02145250199043985 
0.001411422743411498 
0.003453412290726796 
0.005425929963680705 
0.02925566520825972 
0.003496034952458426 
0.003237755599924693 
0.01689486610887237 
0.01247967757234915 
-0.0269518341391806 
0.01251688634515857 
-0.01831469037154937 
0.004989749792152838 
0.01356739493868823 
-0.06747550100006534 
-0.01558226246298473 
0.007182893479512623 
0.01347300300187357 
-0.0545346407504216 
-0.006820482079021159 
-0.003977977684134822 
-0.009136950930755868 
0.04114931378115576 
0.01139111495448716 
-0.006339620488044369 
-0.01558895188350587 
-0.008514348906707502 
0.008738662481493997 
-0.0008617668874958003 
-0.003974049784440434 
-0.0003193697560244229 
0.02322352754030608 
-0.004023960798612765 
8.223829553205607e-005 
0.009886737545423201 
0.003465008526421461 
-0.00837183417200873 
-0.01909527420529692 
0.01471367838873426 
0.003765000662905112 
0.009596963408080597 
0.01639615285438857 
-0.0001485052619036233 
0.02657659579473365 
0.003679966231973463 
-0.06220869895510706 
-0.01328480932417716 
-0.01049064086704267 
-0.01419546830919944 
0.03492911156719624 
0.004478924346167711 
-0.01575427402464619 
-0.02226341721030532 
-0.013581854826643 
-0.02317789715333118 
-0.002920896132046634 
-0.001551519382609052 
-0.04048033616333628 
-0.008648642103050434 
0.02538869787909814 
-0.0005271349108765578 
-0.00917968386101109 
-0.0127502651408139 
0.005659827599700471 
-0.002051593812651878 
0.005996530637653 
-0.04029041829439676 
-0.003456263353185786 
-0.006873064641764253 
0.0004039581968348992 
-0.004349745440170895 
0.01794008522662556 
-0.02788242100356883 
-0.002834781105600737 
0.00622175592257917 
0.0002085559714015231 
0.02703727893670449 
0.004253500510702573 
0.005820164660486726 
0.001060099825530209 
0.001163994227946245 
0.01274938375180456 
0.008650750309302858 
0.005649201528219937 
-0.02574803542950695 
-0.004846512252599681 
0.009464920606310824 
-0.01460612857047057 
-0.004926776379625106 
-0.003843803256644612 
0.02031257847422886 
-0.0008394330653889409 
-0.001813092328039393 
-0.02978361237466332 
0.005764033269898444 
-0.01700999807186093 
-0.02384823246815344 
-0.003922291657429331 
0.003716282492721912 
-0.03284593160405067 
-0.008373803806634921 
0.002012634567069756 
0.01269935418265763 
0.01919384348664261 
-0.0006972347424489965 
0.002486867505538546 
0.003719214638609147 
-0.006861739248404299 
-0.03444793967430456 
-0.00935954272933795 
-0.004498993071041548 
0.0004406076310659996 
-0.03696315619733222 
0.0001893240037947061 
0.005788033566062598 
0.00626366583411211 
-0.001765021427800802 
0.01387255987149245 
-0.004081995086303394 
-0.007000137342635755 
-0.0337769617617025 
-4.959232258888279e-005 
-0.02348904765776068 
-0.0276005790358461 
-0.005877769635009197 
-0.003291587605038713 
-0.01298105254076372 
-0.00882571235239858 
0.006325931427131885 
0.02095665459944487 
-0.02830883634031639 
-0.000756162644931263 
-0.01042316749349177 
-0.003043852525588659 
0.003518250674039098 
-0.038245697060074 
-0.01239826845022648 
-0.006800697131775987 
0.001381301192961834 
-0.03943737479903965 
-0.002990241023474281 
0.004591884550249428 
0.006488539720067993 
-0.00251001898567973 
-0.02191846078849406 
-0.04363368002195464 
-0.004749215424195633 
-0.01260059771808342 
-0.0285643911858919 
0.0003866129945316597 
0.01386659610605106 
0.02145627514390494 
-0.003570129033918366 
-0.01542071059106336 
-0.01123659862459773 
0.003161505125267207 
0.01648818244871621 
-0.03020920050532206 
-0.003561353060985146 
-0.01383423923532667 
-0.002765156313431657 
0.001448357618416969 
-0.02987703924846517 
-0.01116072238816098 
0.008999823466931093 
0.002399105066327317 
-0.007644472124094663 
-0.0247589036301677 
-0.02513082679309895 
-0.01104198667315936 
-0.03024545738532417 
-0.01948846778744117 
-0.04015326842196497 
-0.003039264160314431 
-0.01052258228598646 
-0.02555863957551686 
0.00260259895669468 
0.01505246475450618 
0.02470516049688172 
-0.001398170332742813 
-0.007411156053187108 
-0.02464410368332221 
-0.0007321887926296525 
-0.004101232150658407 
0.004238540997220305 
-0.02172969123949077 
0.01247900049740556 
-5.167734097216771e-005 
0.01388958040663173 
-0.02786410750277762 
-0.009092892072982502 
0.01133519028712514 
0.005081952340984208 
-0.005279586329979932 
-0.02231759465539292 
-0.02198298053268735 
-0.008448181890294606 
-0.02902309065535875 
-0.009863805096071951 
-0.0004634455565965987 
0.003682056536659533 
-0.01252758475372665 
-0.0109030288449376 
-0.0005622583616727826 
-0.003655708294898978 
-0.007408673053490282 
-0.02346866817991938 
-0.005837405440150172 
-0.02148824927777341 
0.0004583844526458228 
-0.003255931189077562 
0.004133770553008158 
-0.01823742982939883 
0.01584456476372362 
0.003352373232433524 
0.01656545315257065 
0.03671842775219585 
0.006600598953243239 
-0.002480597713586482 
0.009817028009829589 
0.02019744704889075 
0.02352370196645066 
-0.001845881321629181 
-0.002067198632616129 
0.01175178082895215 
-0.009853625889480111 
0.002560807719276672 
0.006401445900839177 
-0.009372430391554814 
-0.01036133865987129 
0.002557545440514881 
-0.0005190366460546933 
-0.005468068836816128 
-0.02010886280276659 
0.0006118043631885555 
0.01081120729806382 
-0.01665347033214415 
-0.01040174165347116 
-0.03306945155054173 
-0.00157649816970061 
-0.0004937727764359325 
0.00345335608590343 
-0.008250146278486477 
0.04054805673883363 
0.007324109192996517 
-0.0002009883779609018 
0.01069834631990325 
0.02446771628065712 
0.02662675122405218 
0.002854231164684526 
0.001454753150273566 
0.01436289166969297 
0.01049424233699377 
-0.02233073632823283 
-0.006974685147588043 
0.01072048465362081 
0.0144648435126524 
0.005233454282775233 
0.0004683002449968444 
-0.009459179448779439 
0.002275059585132358 
0.002698946643023362 
0.01689655187803147 
-0.01231949118542407 
-0.006465847143882272 
-0.02235066684050621 
0.0004429565003183073 
0.0042040823209904 
0.007492487383083323 
-0.00314030451553541 
0.01318727059313887 
0.0003618831839611026 
-0.007511310587951151 
-0.009035068284718915 
0.01992567911969048 
0.02451796623368454 
0.002067035754049806 
-0.002765576476299106 
0.01114629815736257 
0.01179984284307036 
-0.02207252471703532 
-0.006360339689936868 
0.01218968094467119 
0.0154367702031518 
0.007507811584938726 
0.001432433043920371 
-0.008659474039676769 
0.003016359509277877 
0.008519985725156946 
-0.006232253667574896 
-0.003345145914210432 
0.01798134486874506 
0.01461925070020498 
0.002682554669651404 
0.009214039558778668 
-0.001176082545954307 
0.009854816926457349 
0.01512549559443179 
0.001309592844977408 
-0.006747603907590477 
-0.007648774989825692 
0.0260173658101777 
0.03105001592557794 
0.002354918806115901 
-0.001940770879125493 
0.01229616138840779 
0.02337367146880996 
0.009389729064755076 
0.007203911134566118 
0.003632702849690604 
0.007496267424880789 
0.01535045743283879 
0.000440214071091762 
-0.0114758087069526 
0.01490030912609773 
0.006602751202528611 
-0.008699240540453696 
-0.005691810800903065 
0.01793269872575006 
0.01709217481145723 
0.002102882167553408 
0.00758005484064576 
-0.002332675543878711 
0.007916614309582569 
0.001636641624010931 
0.0114485307683392 
-0.003044316652259946 
-0.007494152234192393 
-0.005518238697210876 
-0.01356776570974196 
0.003498513939081539 
-6.835109874752098e-005 
0.002070341995095277 
0.02322782307758075 
0.009262840116721398 
-0.003691148267985636 
0.003280688938715252 
0.007243575558733452 
0.01848930973658943 
-0.0008716983829475605 
-0.01421449307346617 
0.01413196024184006 
0.01867544814877965 
0.01542191961264358 
0.003732835230881426 
0.02458351201008422 
-0.002650342393471677 
0.00160536558147137 
-0.01357058206275905 
0.007129702479829146 
0.01647734155195983 
0.002432315935587583 
0.01198036626812801 
-0.002768080806623287 
-0.006773640632675961 
-0.004916158561030786 
-0.01351209272388924 
0.004032236362339902 
-0.0001034837175482741 
0.002717455079183767 
-0.01714640507728133 
-0.01147713775634257 
-0.01984958220519402 
-0.06379623260337178 
-0.004162871950936891 
-0.01456581339044799 
-0.002137383033617124 
-0.02506696666400514 
-0.02160106832319363 
0.01914035091829199 
0.01581130228422491 
0.005578547284474935 
0.02422593313728796 
-0.001791672489397179 
0.002386256380678964 
-0.01768884805008799 
0.007436691385357511 
0.01697794594136917 
-0.01042112415710343 
-0.0163115492167386 
0.01827111111353132 
0.01614181084273082 
0.01942418360273951 
-0.00651514675007275 
-0.008250465407897254 
0.006159127357454217 
-0.003083879184447342 
-0.01293799309138029 
-0.004964324613111864 
-0.01294621458126337 
-0.05670680079022129 
-0.001059113361501021 
-0.009820630984429469 
0.001030819339057062 
-0.01856764702431487 
-0.01862726265667739 
-0.03310717947217386 
-0.01116349642988984 
-0.01595113930842095 
-0.0130249347917841 
0.006171665165654958 
-0.03395772871270574 
-0.01693791396491249 
0.002339789485258564 
-0.00809913410547646 
-0.004153456755037435 
-0.01015631605236194 
0.0265875617076996 
0.02024739543173459 
0.02268930542046447 
-0.003009355546615438 
-0.001412475787953872 
0.01142723302841937 
-1.696196764247788e-005 
0.005618557912191163 
-0.0001553886087059998 
0.02711604993280943 
-0.01558511956523241 
0.005165366883873683 
-0.07405159843839933 
-0.02553343453513642 
-0.01370770953623476 
0.00499194018106363 
-0.03070792410274352 
-0.008416464427362892 
-0.01274085063149449 
-0.01011985081934193 
0.007045351033169773 
-0.0316904262757693 
-0.01478160144858915 
0.004163252900772016 
-0.005235142866959121 
-0.01549341891412686 
0.01856145797601716 
-0.0016365312616697 
0.01227647392183208 
0.02130540682637335 
-0.05023112716848714 
-0.007500796925926036 
0.0115864606327263 
0.01804022984471703 
0.005898082669658401 
0.002012189033453787 
0.02518607319681445 
-0.0121764387073113 
0.005561286696145332 
-0.07173704087392598 
-0.01824316371164012 
-0.01086876656192079 
0.006903714260019654 
0.01246689508365847 
-0.01652896904765674 
0.00840343852293652 
0.006137194373537235 
0.02029111725634109 
-0.0207024502210989 
-0.01436888343732764 
0.008310485606460864 
0.01733878452368947 
-0.0174588377003376 
0.01866298025678008 
-0.003661186324402282 
0.01121100139965899 
0.01946919415903012 
-0.05312194535016026 
-0.008481426094172547 
0.01402560330756096 
0.01717792067475614 
-0.0374060113230682 
-7.467647384415004e-005 
0.001339054633018278 
-0.005498268119156604 
0.04683058781817714 
0.01739040161945963 
0.0009621255465617354 
-0.008450903490438833 
-0.003738073775787745 
0.01049670667989353 
-0.01949233416665146 
0.001811517118927722 
0.003553784534197023 
0.0179155142137587 
-0.02271507919691496 
-0.01342735787948687 
0.005974811443523402 
0.01493495206307044 
-0.03049519855107008 
0.004578079499919733 
0.002068026075722361 
0.005138170534471053 
0.02906814794519958 
0.01143635043319686 
-0.01914702787134131 
0.02666125070676872 
0.02329219873995397 
-0.04209150055407192 
-0.00158340647554676 
0.0007616582491199403 
-0.006082370727564868 
0.04419099328382829 
0.01533929626178997 
-0.0001697020601124431 
-0.009807837875674718 
-0.004892284957825968 
-0.01776571642054198 
0.007891853993700257 
0.00824429488353921 
-0.02796575354383039 
-0.003141424237400549 
0.03279805391012067 
0.009201371746300946 
0.00036487069984539 
-0.004356765343429371 
-0.03316306262078449 
0.001594463359624233 
-0.002641909497100817 
0.00256675525484759 
0.02756261264597068 
0.01051461192299645 
-0.01604712633722958 
0.01446224746640708 
0.02258174585021307 
0.02444611413984446 
0.007952086402753592 
0.007622715184802683 
-0.01239277063272229 
0.01315810028414931 
0.01828915848136321 
-0.02353166247473338 
-0.0001537872722009048 
0.01502896745569179 
0.02341874794980186 
0.01821556264656042 
0.01478120439877844 
-0.0177467897130674 
0.005705910138375037 
0.01504451350184623 
-0.0045931934662778 
-0.0005288106371193451 
0.0006195435853604411 
0.0296953218834514 
0.007031171558194997 
0.008053836578760531 
-0.02337120024489121 
0.01435465526276335 
-0.00897969031968557 
-0.01124135173642972 
0.002841125731243075 
0.01055149496587559 
0.03211753819455285 
-0.001334953420715806 
-0.01070079010410737 
0.01024433967057572 
0.041330774340222 
0.01623963320273374 
0.001760116927082045 
0.001902017567536531 
0.01947971474938253 
0.009072343801511449 
-0.02227631085659183 
-0.0003093242694492695 
-0.02753841960879241 
0.01131497300637851 
0.01898856312949565 
0.009133254735980378 
0.01476293523358932 
0.005578072817655292 
0.02597819834004119 
0.004810876698541248 
0.004430316111989161 
-0.02705596545432321 
0.01088089302802532 
-0.01243862421745041 
-0.01532849312317506 
0.0006778022971731465 
0.007378648300196216 
-0.002132087436337859 
0.0008149875218909879 
0.01735891008186205 
0.03669773302105207 
-0.02022785346541627 
0.01032783179336472 
-0.0007122898978772893 
0.002674610097997617 
0.01234675233843623 
0.005418930878476293 
-0.02837272546267974 
-0.003936026744516459 
-0.03177944252015891 
0.008163743283709892 
0.01453316495374355 
0.00573327676682929 
0.001052969885107902 
0.002205232157397662 
-0.006413669393753408 
-0.006498969676242431 
0.001075514467070995 
-0.02346458671122366 
-0.008132627887256945 
0.00894011710106501 
0.004330927623240378 
0.004799431118880608 
0.009029463323914687 
-0.008062127955844003 
-0.004675822135797151 
0.01169674385765831 
0.0231400835304525 
-0.02400933240563365 
0.004486671953963415 
-0.005492041915285923 
0.0005739903366910703 
0.006150238237656745 
-0.02136596409317246 
-0.003188237338484423 
0.01730634373468665 
0.0008746114666914617 
0.001487018247140959 
-0.01406937307988314 
-0.01716473938933037 
-0.002386848837007609 
-0.01500122447588407 
-0.01315131790810365 
-0.01270447752017932 
-0.001941470073054925 
-0.02753744542566555 
-0.01238274427241196 
0.002337735352284492 
-0.002005336988539037 
0.0001494387378615287 
0.003280546959744417 
-0.03190788718521819 
-0.01491734104020699 
-0.002853581589068318 
0.01358163505202599 
0.0108794521923078 
0.004981238658912368 
-0.008733170052810099 
0.02193919588483435 
0.01132553515248696 
-0.02353107864806247 
-0.005650012715859867 
0.01300326945301147 
0.02261469855285741 
-0.001359776336475747 
-0.01771137794335016 
-0.01736177929281164 
-0.002646887369535276 
-0.02481200872136245 
-0.01156045448606524 
0.003959376220084402 
0.007220509524093578 
-0.00863386937875853 
-0.01270014262546567 
0.003687031465228796 
0.0009680185984840837 
-0.003551959670865482 
-0.01858787446396922 
-0.03242558290617166 
-0.01672912534651798 
-0.005090243984077899 
0.01446685692651785 
0.006683589325790449 
0.001522615967529278 
-0.01112193909696103 
0.0177868167307247 
0.008013006172464037 
0.004134563027716144 
0.01254460741955647 
-0.006778678111227105 
0.0074737106953044 
-0.006785148573686291 
-0.0006066916067177207 
-0.002461674725986666 
0.009276095812156363 
0.001865093009769883 
-0.01413684014498132 
0.00353795459874358 
0.006421038695438572 
-0.009112206567419158 
-0.01610868150105237 
0.005378823040194604 
0.002530284229191384 
-0.00369533332706202 
-0.0188436486432287 
0.002289224917269335 
0.02422867920207857 
-0.01536147605909263 
-0.01787708111683677 
-0.02284462791856804 
-0.001335914081982319 
0.001566574328162975 
0.002905507710521469 
-0.006064661990838768 
0.006443160258947646 
0.01511131860324276 
-0.008079624298546832 
0.01055347854124339 
-0.008602406284179508 
0.0002241183354831572 
-0.003164741968417421 
0.009480615597645169 
0.002983159464647005 
0.002366807373624918 
-0.0002552805881966064 
0.001580183784174947 
0.00902838978160299 
0.006590194155779267 
0.003640288781880065 
-0.003532543131701929 
0.003330609482362046 
-0.006349587909467058 
0.002538804138057205 
0.02571457881470008 
-0.01353383997872397 
-0.01481323154331898 
-0.02188640603659794 
-0.001069664197570642 
0.002759044492673077 
0.003699923421972121 
-0.00504672123539139 
0.0122676150576021 
-0.0006448312915467897 
-0.01025535943151298 
-0.008915496324293348 
0.02743749524644738 
0.03451430298349111 
0.0001399529726952492 
-0.005115492849783273 
0.007379939119975019 
0.003983865763331883 
7.079832946593482e-005 
0.00260202939487975 
0.009514999212828262 
0.006447915736755931 
0.004441595702235975 
-0.002640862634756445 
0.003714168137367375 
-0.006097730394262283 
0.01721378597654727 
0.000775707513777924 
-0.0006179435149119455 
0.008747287696758073 
-0.006750880254072917 
-0.004677096586564872 
-0.004927769674723896 
0.002770098052379646 
-0.01271419263497467 
0.0153652816221197 
0.001138276157705681 
-0.007464995800677451 
-0.007479086900130629 
0.03035285849226271 
0.03636048537312923 
0.003551771509277335 
-0.002405876979955421 
0.01036844703417776 
0.01734325619282797 
0.007174234621437499 
0.001295211244909804 
0.003576946050444063 
0.009199808720798765 
0.01663621177004883 
0.0005811141713637535 
-0.01180702477317999 
0.01496431644851603 
0.01790100795574905 
0.003625591367176831 
0.00271659604675595 
0.01076284112254125 
-0.005421075951682324 
-0.002504692877154404 
-0.002358379241437398 
0.003721768235344459 
-0.006698161118869311 
0.01517618163001996 
-0.01772095070744567 
-0.004438674592550598 
-0.006662138147812797 
0.01583552006706925 
0.004449736390369004 
-0.00674968923933017 
-0.009447999417515068 
0.0005190890784658045 
0.02309590369509531 
0.0109704872229018 
0.01083862858763626 
0.005588458516557792 
0.0120236327919009 
0.02162866764906356 
0.004963831144280712 
-0.009975259661651885 
0.01898436132139078 
0.02220301996806747 
0.01729801462263509 
0.009209072611100731 
0.02742323096062976 
-0.0009782107444919694 
0.005668521426495737 
-0.01092011031728918 
0.01137180554460429 
0.0188955839089173 
0.01825017388183103 
-0.01642846008318491 
-0.002386473240800992 
-0.004886675193317484 
0.01790871689718943 
0.006474252991613192 
-0.004696093684589431 
-0.009216245783264269 
0.006043186419530051 
0.01741750149760258 
-0.008101221832582365 
-0.01217498442591006 
-0.001630420113559645 
0.008298855712315589 
0.01221431045868728 
-0.00642370657467714 
-0.0003529090218972427 
0.006506127770279552 
0.02177669797146209 
0.01726647040660259 
0.01198402180957556 
0.02746814205231202 
-0.001265024695850323 
0.005070014610011093 
-0.01576475189346406 
0.01068217207288421 
0.0182511553397811 
-0.008204424274984504 
-0.01401390891029063 
0.01901629980887115 
0.01792046872194171 
0.02252812835679518 
-0.004782871691574654 
-0.005796854439356574 
0.008799518594049573 
-0.002097367030108439 
0.01697171191263659 
-0.007928451032153188 
-0.01318738245158627 
-0.002874232360605659 
0.007849815550013135 
0.01152188968993785 
-0.008180704244076477 
-0.004441011675909134 
0.006391655434754047 
0.02352566367188357 
0.02423207851533757 
-0.0146114842827289 
0.01188456183922761 
0.01340697459236493 
-0.000425180543297624 
-0.005679746188681766 
-0.004046555205792195 
0.005230487930261945 
-0.005768202167452463 
-0.01144793187557292 
0.02322486095733376 
0.01774530963416919 
0.02373902257216876 
-0.003878235820210426 
-0.002962675158539762 
0.01064096700339334 
-0.001846087092978118 
0.004405571698627146 
-0.000584508831517389 
0.04285319900116011 
-0.01725071837628871 
0.003932387905212686 
-0.0807791128368045 
-0.04121589765972409 
-0.01471158821060266 
0.005002657040791763 
0.02305095258311608 
0.02493381680770614 
-0.0118672201133267 
0.0109358455726066 
0.01215887133939615 
0.001322699785732472 
-0.00356890180238598 
-0.001726560984207351 
0.006152269634572875 
-0.001940807692693227 
0.001779931963054269 
-0.01435849988148105 
-0.01245827756409736 
-0.0038912098172949 
-0.002657692458319581 
-0.01052603771004369 
0.01280357672478735 
0.008180171874145069 
0.007065725556175974 
0.001847365186536003 
0.04652470358132226 
-0.01371219279644182 
0.006047084534016283 
-0.0759566163790809 
-0.0314963594983866 
-0.01119275383193654 
0.00800449054423295 
0.01195103201786422 
-0.01703841070382359 
0.01549320979792132 
0.00555001080679533 
0.01948498566974812 
-0.02155339849025689 
-0.02183879908134737 
0.006821040182318237 
0.01703672452255704 
0.0005541499519446272 
0.004655980293909641 
-0.01006109062436422 
-0.01024181782459831 
-0.000715597109554467 
0.0007970273087622325 
-0.008630115701389936 
0.01520726140600914 
0.009917309714060987 
0.0007237103293508064 
-0.01041285602636682 
0.0008096373602879746 
-0.001557181595814197 
0.02205502192276562 
0.008530161506013299 
-0.001360217582563165 
-0.006046936977774447 
-0.003584646479602712 
0.01000632254939626 
-0.01877747846000829 
0.006024665570870495 
0.003967646893704619 
0.01763529789405915 
-0.02361311027236511 
-0.02819928841642059 
0.004503325093099634 
0.01532045974280761 
-0.03012907208362679 
0.005334537919253671 
-0.002358140030518419 
0.006031426595716113 
0.03350726974949612 
0.01026148595114458 
-0.02791801857963283 
0.02084343117366299 
0.02367396820214583 
-0.001011722344451857 
-0.01219443659725318 
-0.002336352176137075 
-0.002780401840864104 
0.02045382395098244 
0.00626498141283616 
-0.003106833261811134 
-0.008076916704903391 
-0.005525990217591262 
0.02862965193479345 
0.007916579132360279 
0.003436680713910134 
0.005099989502618526 
0.02567377598375886 
-0.0007864107110126543 
-0.001507166382765143 
-0.005517009764281058 
0.003767394415302281 
-0.03125271468104607 
0.004531106523416982 
-0.005396159644238823 
0.00482916089995151 
0.03173387843818441 
0.008703410304376132 
-0.02975089296594313 
0.01823493187449702 
0.02310356829749853 
0.01595460887510822 
0.005203360194299628 
0.008547447932347312 
-0.01238826898655636 
0.01285991302738232 
0.01591637864819932 
-0.02325138595001432 
0.001935728455896802 
0.01246311272840483 
0.02785807087241366 
0.007095919564854232 
0.002458616109667154 
0.004062629319028445 
0.02508444155613443 
-0.001891585495252386 
-0.002168862961262889 
-0.006625627777056524 
0.002727943658660351 
0.0219276956990968 
0.02173065244503001 
-0.01043521180464862 
0.02093261869090855 
0.0244422280284637 
0.008268053986586985 
-0.002932553526803901 
-0.005973119466769727 
0.005237026067571646 
0.02564888901123549 
-0.005105476148051947 
-0.01783145115142853 
0.00269471332699013 
0.02322913828491376 
0.04411144185267436 
-0.004898345036267352 
0.003199897127535932 
0.01641664555394347 
0.004200104463110473 
-0.02708133703042652 
-0.005173420709309837 
-0.03200207182831018 
0.006741135290232388 
0.01560697789817444 
0.002955079891593692 
0.01312578801382293 
0.001850216268616536 
0.01425551965641878 
0.01427570938884638 
0.005128332752843555 
0.02383410940847821 
0.02605240788783448 
0.03214083909291303 
-0.009812132647292964 
0.005645764199322793 
0.007618790841023032 
0.02521157270976604 
0.03284760513662154 
0.005548967694576726 
0.01821481634825565 
0.01721969031707704 
0.001162326954155384 
-0.002812928190896316 
0.0002251583853119377 
0.01869422162032707 
0.003690365793370703 
-0.02800315622153636 
-0.004335297500057306 
-0.03020813013509197 
0.006617693692517382 
0.01341825420497353 
0.002276880256300367 
0.01271205392554534 
0.0009272216211207774 
-0.007741903877947256 
-0.008292054381593271 
0.002038633711304336 
-0.02467193138388932 
-0.008785776932490719 
0.00659512341558813 
0.003006418792920733 
0.002951791114246075 
0.007300832337977183 
0.02359894201320705 
0.01572661447872278 
0.002428432257089579 
0.01748262647010927 
0.01619618472701343 
0.0005235203114442005 
-0.002800401434274416 
0.003560573037933666 
0.02133509280664332 
0.009610232573793041 
0.001186465222720175 
0.005350066323364749 
-0.009067719882937291 
-0.001470062941926673 
0.0103648152644312 
0.008082662971223401 
-0.001050114102714416 
0.00519401001309549 
-0.01074881142773951 
-0.009678785488093132 
-0.001057832439242936 
-0.02657080118587608 
-0.01060694533468705 
0.005550954625059232 
0.001476442381707685 
0.001799403138286665 
0.006490635139222327 
-0.03092103543896384 
-0.01273020534367583 
-0.001726322121607249 
0.01088392585983499 
0.01584783460051369 
0.008904271375428315 
-0.005751135657690413 
0.02294677489462111 
0.00985537778245538 
0.00319070330617273 
-0.005691619764686523 
-0.0007971691159156669 
-0.007352861007725239 
-0.003164584894614039 
0.008566788288568581 
0.004638014122453035 
8.669466195761441e-005 
0.006710928211645845 
0.01330335757241258 
-0.01678440019635649 
-0.001690731550198018 
-0.01878735236272092 
0.04184896254707658 
0.04279194462349773 
0.007457877777306656 
0.002797354522319684 
0.003610566136206268 
-0.03208623701471654 
-0.01475244211577748 
-0.003518873904145073 
0.0225354657212651 
0.01175058018606285 
0.004955410723353072 
-0.008991624786985206 
0.01871397657219004 
0.009618218370246449 
0.003431986654961327 
0.01156285831041097 
-0.005518684571045948 
0.005078700197847392 
-0.004106867592822116 
-7.231994741003969e-005 
0.0002046801537687305 
0.008896906432463729 
0.002433017523067 
0.008344234654034732 
-0.01752713898005329 
-0.0002332091469155334 
-0.02196028851173751 
0.02919887261524609 
0.03965504949673929 
0.005184366313951807 
-0.0001433524200792176 
-0.0001305256542576765 
-0.01276043791636881 
0.0175429547890424 
-0.007686120096812647 
0.01732526278711174 
0.01237483378007852 
0.02302825040724683 
0.007727621636717763 
0.005639215862025621 
0.01850712476222694 
0.007209180367218558 
0.01297985557053624 
-0.009402631757524992 
0.01162687142671792 
-0.00797482858874791 
-0.0003826721392729084 
-0.004857935109797365 
0.008436044305688223 
0.004368524803873747 
0.001612529030420755 
-0.00100324417407135 
0.001067572662450008 
0.01026864247732792 
0.008595952423418381 
0.002466319754834475 
-0.005136948856158959 
0.002435980251255472 
-0.005447059739848463 
-0.0158291373124006 
0.0220265029799719 
-0.01297548933787882 
0.009554137352180253 
0.0101099249596312 
0.02094683917348493 
0.006803769876131338 
0.003802877238140966 
0.01604184599885028 
-0.008676608654890223 
0.01154478897857324 
-0.01050236407063778 
0.006971964471294897 
-0.005148690146515447 
0.01601088804833345 
0.01120808540768763 
0.02221948820811796 
0.001797723684350098 
0.001202688676389646 
-0.001712254353122001 
-0.001500215848836918 
0.008872850438998412 
0.007546017014652099 
0.002527957184393623 
-0.007055560454749083 
0.001725511142026719 
-0.007722763539906139 
0.01383000331428582 
-0.003271549048053556 
-0.004525025512326795 
0.007790079847815443 
-0.009987057200064766 
-0.007786121698356482 
-0.009113804451886075 
-0.0004914829475547985 
-0.01833915614057722 
-0.009634268344815272 
0.01030532955848033 
-0.01222133040632658 
0.007459633984366187 
-0.00627217154358391 
0.01559395068727005 
0.01040476003697579 
0.01730151995130893 
0.001407740473197397 
-0.0107124667110991 
-0.01432584517883848 
-0.01098035407188765 
0.001264233150188922 
0.004159947272531026 
0.005926452742436804 
0.01166369818334694 
0.01636550947167742 
0.005023646578558206 
0.01734260725137736 
0.0008549569681834198 
-0.0005006211531303563 
0.01005857976228003 
-0.005891449041420761 
-0.004174718648725992 
-0.005461317933505624 
0.003018960076075316 
-0.01424088472761798 
0.01335030564151618 
-0.02055357882872328 
-0.007901681531597362 
-0.0138183060838256 
0.01327893672441443 
0.00298960837847729 
-0.009193843601322926 
-0.0187608877290998 
-0.003378637315666341 
-0.00796386477087103 
-0.01038126641955537 
-0.007780549688600529 
0.003340226687169966 
0.006998756787061032 
0.007965362239161828 
0.01284939981492667 
0.02036088975919266 
0.01009424357494944 
0.01056869653176918 
-0.01065237499905603 
-0.02327650841758888 
0.01165996961980894 
0.008992299431328324 
0.01103745291979631 
0.006498910266115765 
0.01425825880858322 
0.009435493588096817 
0.01936870957288612 
-0.01578035590614495 
-0.001519978876065936 
-0.002377418359448292 
0.02040234694735321 
0.008415845427827171 
-0.003278037514258686 
-0.01098733296595598 
0.01174380085223856 
0.01995210794726353 
-0.00420556225930793 
-0.01122941101556497 
-0.0004992915764086001 
0.01027061370060169 
0.01473066100806382 
-0.005434350412031525 
0.004725819782829238 
0.009935146834695046 
0.02047853352262159 
-0.004685444302913724 
-0.01679877755340846 
0.01553564961606708 
0.01668862001197058 
0.01729437748115433 
0.01085826589947749 
0.01756229373630393 
0.0126604055658217 
0.02662767633080678 
0.02325102255098384 
-0.01666171902400819 
0.003943259139622223 
0.01250497955781661 
0.01659889648966332 
0.01142514435473589 
-0.003748667758585512 
0.02216906616520683 
0.02549671274685704 
-0.002770097818233733 
-0.007443194159892873 
0.002224666543790126 
0.01316741195955604 
0.01779681934853614 
-0.0005505733677666888 
0.01096193985387254 
0.01387930299782921 
0.03209417550889159 
0.03553376476430521 
-0.009110282711814154 
0.01671193045264853 
0.01873213529175413 
0.005344948721786528 
-0.001878078231047436 
0.001016852937134917 
0.01269228532929233 
0.03155548814319089 
0.02777582470764736 
-0.008000687028278367 
0.005816738592601844 
0.01904205061254439 
0.02133928027851867 
0.01431488197436192 
3.949238867961705e-006 
0.02372575719636046 
0.008681617379151851 
-0.01388678021531703 
-0.007219153788151583 
0.004434465353061685 
0.003948848887563535 
-0.002730547001474839 
0.01431692551790802 
-0.01702883688271243 
0.004945292766144335 
0.0317338110833878 
0.03468295071165488 
-0.009370135460418457 
0.01692784060947177 
0.01908029992637651 
0.005125991095930589 
-0.001203259412054925 
0.0007783144228039257 
0.01266826792762435 
0.0002142492340378114 
0.007370030875728984 
-0.01169308253442234 
-0.01011921037414637 
-0.001751720461429114 
0.0004225494374788248 
-0.0081433030362019 
0.01916668829305464 
0.01481882802290053 
0.009303860895511258 
-0.01375121527899182 
-0.009162642285010857 
0.0041089081327553 
0.004241544308645213 
-0.002513749998184046 
0.01507158075693427 
-0.01657991204634422 
0.00387269165694477 
0.02226020061677202 
0.02476701521423077 
-0.0002728216874061688 
-0.003996642337178966 
0.007810392894742235 
0.007206649385800991 
0.006501489670116867 
0.01065964934760555 
0.006079310080988986 
0.0007362773789444665 
0.006174439959856393 
-0.01351759158843629 
-0.01156299139571179 
-0.001491433761738892 
-0.001255657866040926 
-0.009890082161050195 
0.01797298349035547 
0.01422654943317099 
0.002860355125401757 
-0.01166635652634547 
-0.001744159850481842 
-0.002924094503361971 
0.02200820313198073 
0.008918912749620157 
-0.002532398632784268 
-0.007753157267782523 
-0.005920334443897174 
0.02062677935298954 
0.02315793569444926 
-0.001418511289577811 
-0.00526960152027405 
0.006642684796619881 
0.006422131378733656 
0.005312763517449449 
0.009676736668131817 
0.005495011361291311 
0.02811351648632936 
0.02697411388140518 
-0.002933434953591074 
0.02654850349562876 
-0.01089977340877297 
0.009725936329131723 
0.00379172792684058 
0.007174082055459322 
-0.005501114857314699 
0.001364275755402335 
-0.01320731980686921 
-0.004402227329464156 
-0.003777720525127411 
0.02092011682048547 
0.007462874989711642 
-0.004230182269283839 
-0.009250782875842528 
-0.007117697000477455 
0.02762546113694357 
0.00735103553761102 
0.002925908872696106 
0.003580190338979717 
0.03149335030672836 
0.0002272155638734857 
-0.002945665606803638 
-0.007694961744366909 
0.002859335603403928 
0.02597158339412327 
0.02609119112068513 
-0.006437257502099232 
0.02449760354233497 
-0.01162183595140082 
0.008389986240903015 
0.003112448080077951 
0.005437686489684249 
-0.007165423885885235 
0.02999175118101615 
0.02066206612650994 
-0.01106523206805377 
-0.005050009504110702 
0.02731749776668124 
0.02155398834182023 
0.003450064437208057 
0.01019576244554267 
0.008743488328083747 
0.02767503491228532 
0.006909286027579392 
0.004243961442439777 
0.003565383871465714 
0.03655976792134624 
0.0001125520117956501 
-0.002941748797900188 
-0.007862225791097783 
0.003252677916120295 
0.03890712947068559 
0.02205094058683171 
-0.01303123423973034 
0.02239004636269312 
0.029850173593486 
0.009799865824371059 
-0.005398045776911433 
-0.005731198840434677 
0.008779368540173563 
0.02994688736562258 
0.02036068308093326 
-0.01412787869263143 
-0.005152900053506987 
0.02736676819978794 
0.0224504406202184 
0.00355473005883692 
0.01185472681200046 
0.008662563511493273 
0.02031345009903446 
-0.003257147327330635 
-0.01015735460068306 
0.007873335833544777 
0.01186826012808751 
0.009341141109640717 
0.004630285065619876 
0.007869258579749364 
0.006709992932538499 
0.00311619552160596 
0.005545439361748417 
-0.01055745949307895 
0.01355706236381399 
0.01540015199176716 
0.02161465917589053 
-0.02196314457334164 
-0.004703837372445453 
-0.002340999302384667 
0.01459785438297482 
0.009175915698663393 
-0.007930097680323395 
0.008031807737358263 
0.005984204520121613 
-0.008065694945353192 
-0.01412148892691478 
-0.01564159787017799 
0.006354004167733458 
0.004763126720997605 
0.002012462047104308 
-0.004485821303543079 
-0.001249572901274425 
0.01880416010294499 
0.004128083008598166 
-0.012485630679312 
0.01138270956126726 
-0.01176469364025218 
-0.01677810607689425 
0.007001347149930887 
0.001888641871284967 
0.01244491807767702 
-0.005331608491341268 
0.003087540472123665 
0.001474199608619723 
0.02907820999367759 
0.01130800928324053 
0.01487725175343219 
0.003412273693316231 
-0.004668649976466539 
0.008949251770575418 
0.00671876379693503 
-0.007353490178420141 
-0.01282359970854515 
-0.01286885485405235 
0.009206693262000482 
-0.001301460159889829 
-0.006591188676598717 
-0.01053795769654121 
-0.01635444832113886 
-0.008025122579017073 
0.0004938767155488853 
-0.001494155381141016 
-0.01139162542759362 
-0.005058413474711514 
-0.01608896838753532 
0.008176521807945477 
0.003281498290138169 
0.01086191650037603 
-0.004949113672928711 
0.003757141247481833 
-0.0004450087644989353 
0.04110748422675224 
0.01306030792513284 
0.0007163022918159668 
0.01723199570155849 
-0.004610041945913571 
0.006170403697248066 
-0.01126412358796096 
0.02715089105920073 
-0.008988347948922164 
0.01070407776080366 
0.01113978686249625 
0.004107507062751544 
-0.007129560854772891 
-0.006866106061384054 
-0.009016799749730424 
-0.005284274255590218 
0.004014063879884658 
0.0008620484933184328 
-0.005843105435892507 
0.001354512214529338 
0.008929100592810333 
-0.01939020579855309 
-0.004626388338848915 
-0.02289689521431259 
0.03313515334614888 
0.03921533534053336 
0.004809085550051667 
-0.0006861746536316051 
-9.530413855184431e-005 
0.004408012852839788 
0.0183257313720116 
-0.002694690733039671 
0.01335055708224899 
-0.006990420126683539 
0.0304502564214554 
-0.006853574318567106 
0.0156993643575093 
0.01664717345659034 
0.02026342838418354 
0.02144301867793694 
-0.0001928452459046063 
-0.00248627576183198 
0.02389154078119542 
0.01533448514732648 
-0.01003933812935588 
0.006682245959045355 
0.002235120189737242 
0.01145038367696144 
-0.01736478677975541 
-0.004088843550963654 
-0.02248989825318941 
0.03682006392927423 
0.04140730210354016 
0.00560311484011898 
0.001262500369281129 
0.002184895366936069 
-0.0117274803542585 
0.008491784032042395 
-0.007687629236141007 
0.008913881597158294 
0.01370591442383065 
0.02411668975154753 
0.01057377513193888 
0.008531155757582731 
0.01928408185326878 
0.02261807631405119 
0.02646184014351924 
0.002049865169791098 
-0.00239149728908353 
0.02750863179406165 
0.01910738387911383 
-0.009265621427282659 
0.00980621373405326 
0.001609445711933333 
0.00614408558633046 
0.02119453289465803 
0.0003417517376805026 
-0.0148816662265417 
0.0244379919081622 
0.0211686382483184 
-0.009116178520782458 
-0.01815105491565062 
0.01796757570362722 
-0.01260924249433123 
0.01912663709629967 
-0.008547691565275658 
0.01626977002557294 
0.0128320331644623 
0.02345286231216806 
0.01001928916124445 
0.007511481376926022 
0.01920527476092145 
-0.005169282762541355 
0.01688977287385013 
-0.005892403781704006 
0.004577335015704801 
-0.001546316949873606 
0.02001350059884466 
0.01479909453147298 
0.02079487679242788 
0.005902566144445228 
0.001616488256649238 
0.01679248236662194 
0.0003949793757469321 
-0.0205864182508561 
0.01766272633461601 
0.02024367136273001 
-0.009409161126589618 
-0.01206161969280339 
0.0118653006752446 
0.007934575997023746 
-0.01164526998719256 
0.006338507554846957 
0.001414925963879026 
-0.01061784797755156 
0.006903794428916055 
-0.005761654769530201 
0.0005113759618375526 
-0.03359065807761892 
-0.0101775180043458 
0.01150229170140624 
-0.01204763077086749 
0.008530301989170123 
-0.006501526418047645 
0.01608222780526211 
0.01095692589621453 
0.02206382945459907 
0.0006216751634974479 
-0.01153690549934383 
-0.01363521703600575 
-0.01085041931280528 
0.0009276266376818689 
0.004608619167130942 
0.006800790844724214 
0.01225529050392286 
0.01603238862328585 
0.005373617344817625 
0.0009854581904186056 
-0.01617780913743573 
0.001655365469463177 
-0.006073221741628788 
-0.01648014804453252 
0.005008757397005263 
-0.01023804343151699 
-0.004633134565213571 
-0.03813840993352997 
-0.001139846640820627 
0.007222487832337165 
-0.002705254786514198 
0.009829476775211296 
0.01491355459580173 
0.03180052884107121 
-0.001724848940140938 
-0.002492130294023107 
0.0057196877266856 
-0.01223688971323987 
-0.01556291209873893 
-0.01241544964105959 
-1.411969297728443e-005 
0.003389605670540099 
0.005377095993269033 
0.01061508007836075 
0.01992788853077021 
0.004385828406319229 
0.003615288560614445 
-0.01548827837692043 
-0.0308113514736413 
0.01184082715645167 
0.003101100539575218 
0.007944384378894231 
0.003053192055854128 
0.009314862593561034 
0.009048674966509861 
-0.002181718343075184 
0.006077621239477292 
-0.003335508426311307 
0.01176729852080242 
0.01389611655172998 
0.03072192843550766 
-0.002348800597162133 
-0.00407344421923155 
0.004456049873378533 
-0.01020114981190098 
0.008486740517224242 
0.001262090760825077 
0.01426704326621042 
-0.0007772948119761561 
0.008745833165362787 
-0.01047015632279018 
0.01311293174714518 
0.0005357166751646537 
0.006565211253096073 
-0.01350825308689636 
-0.02727024534125351 
0.0142220815708544 
0.005904891804202304 
0.01032535272227809 
0.005156215439080842 
0.01178256539337114 
0.01141135346848007 
0.021775288685027 
0.01288228027771162 
-0.04979463421056567 
-0.002970754926613149 
0.002777223809865934 
0.005147909370361243 
0.005636815011152843 
-0.01309454291757194 
0.01484442768339805 
-0.00772282788153338 
0.01079351245780514 
0.003236138413112985 
0.01581077390036761 
0.001752303942397283 
0.01054158915034884 
-0.008948885144386442 
0.01644887034670995 
0.002523452628082883 
-0.003813158637401371 
0.007086938546783109 
-0.001485189847667455 
0.03417924543058491 
0.02430189955105875 
0.02117380690116536 
-0.01545539794896559 
0.01217224420929543 
0.008156989190497357 
0.02678550551957605 
0.01775525260701742 
-0.02476816521982717 
0.00074134989322692 
0.009735764913758167 
0.01095370769763597 
0.009464847725854802 
-0.008871117633964299 
0.01666658174431035 
0.004555511254304531 
-0.02062562509320307 
-0.02464643464317784 
-0.003787345404919858 
-0.00100921185546332 
-0.00777016496627572 
0.008652362481712269 
-0.0295283873077671 
-0.004022574621989529 
-7.395988043570455e-006 
0.01040856198385489 
0.002257152331146269 
0.02937506551558314 
0.02201073130405177 
0.02401022315576078 
-0.01151602664056498 
0.01713694944062852 
0.007559923801723961 
-0.004923734060847864 
-0.01102827683575534 
0.007594300204401817 
0.00494350099181781 
0.003071705997747502 
0.01429739840674753 
-0.004506923690117369 
0.001487232396441806 
0.01791790149204972 
0.00597551984181245 
-0.02043929618594105 
-0.01629087733748904 
-0.002662144554300105 
8.993715366202907e-005 
-0.006816621177286645 
0.01002504882506893 
-0.03088978254133135 
-0.001869009723092219 
0.01514430928646061 
0.01919916897094901 
-0.007915576483903423 
-0.009662093199570798 
0.002841025665133584 
0.001663434107558004 
0.001566574971971755 
0.004748431638734361 
0.001564671989148744 
-0.004016308330744395 
-0.01045160563023895 
0.009683614890277373 
0.005470303891858587 
0.004037004831223757 
0.01582814428153946 
-0.003062315913080384 
0.002534241830960327 
0.01803349767493884 
-0.00852519995327055 
-0.006760304346395733 
0.007865557146541599 
0.01278295859304639 
0.00413949702576867 
0.004007238004471132 
0.0003709909365204603 
0.003282395730651689 
0.01578007679738223 
0.01369310987878074 
0.01677250708673379 
-0.01074374977548145 
-0.01067224508822679 
0.001693413193347788 
0.0002547158046870425 
0.0003871159368530144 
0.003321970207753473 
-9.834672023943821e-005 
0.0204580240645552 
0.02178956746980076 
-0.00885319165868295 
0.02099036803547667 
-0.01730175834190117 
0.002831678135856574 
-0.001543546788649997 
0.00133314552801248 
-0.01154494719802264 
-0.009692401582685235 
-0.007591987509138497 
0.007094437830948121 
0.009909544188285191 
0.002560659960663927 
0.002626500376188787 
-0.0007917872522185223 
0.002551451494170669 
0.01472707725877876 
-0.01067975980471386 
-0.01814718124975063 
-0.0003398424768995198 
-0.003231177928958727 
-0.01626129235817219 
0.01065133943961849 
0.001708058451969383 
0.005780253924488649 
-0.004053524252487359 
0.02121460474473369 
0.02102384521877256 
-0.01039548608315707 
0.02188918618313255 
-0.01662310941231409 
0.003429593686374654 
-0.001254165007730246 
0.001234401879197395 
-0.01167513413159741 
0.02552222476700106 
0.01718667892588259 
-0.01248723580387448 
-0.00917044771787244 
0.02211497547723684 
0.01623881045305168 
-0.002048248356464204 
0.005189977205463285 
0.003758400340585724 
-0.01033801588469363 
-0.01799069321711115 
-2.723671757046543e-005 
-0.003330404122196653 
-0.01564033174743174 
0.01034845867441247 
0.001728651646554507 
0.01270566399840207 
-0.003402872390206814 
0.01909985444512304 
0.003826918439048153 
0.007011628722527903 
0.01711771609357973 
0.011755548683881 
-0.006209759944211616 
0.00127529448849067 
-0.00697297006400929 
-0.0004272362601935341 
0.02508762054234767 
0.01649608334158756 
-0.01545582409985118 
-0.01036971250739628 
0.02085010417964107 
0.01628855796709718 
-0.00335909352787139 
0.005667259759611662 
0.002885623345452092 
0.01632340546491232 
-0.00855188088115935 
-0.01360206321705478 
0.002050009525569028 
0.004876901407752686 
0.0007275542474500032 
-0.001867447628091244 
0.001393531045213599 
0.0005248342354589439 
0.01791879682818633 
0.003148284221043605 
0.005523055133048009 
0.01585533729062583 
0.0128065192427646 
-0.007188673183918653 
-0.000279549171459352 
-0.009747203549184345 
-0.0009223407592125197 
0.01429534869887717 
0.01998935150171757 
0.005684324344484915 
0.02826516053862876 
0.04437756021483871 
0.0138880647437187 
0.001853159437128482 
0.01858337125352845 
0.03051717342084667 
0.004649781495009053 
0.003581804298404104 
-0.007234562944580936 
-0.005437611427373096 
-0.0008110514071611951 
0.0006223706466754653 
-0.01393725934816098 
0.009907054209084542 
-0.0206623480114839 
-0.01757588488695947 
0.00497863511190226 
-0.0003873072710511093 
0.01050590358393195 
-0.007789563029371819 
9.350444828145417e-005 
0.001768391966887598 
0.0131911411067222 
0.00285185708689095 
-0.005178658540725205 
-0.007729638975937976 
-0.01461996536629819 
0.01204273991614899 
-0.004655870361980749 
0.01843034844505175 
0.006001964266618821 
-0.01525502409923793 
-0.00421868611084366 
-0.007441026328812998 
-0.00338896639980259 
-0.0186455126685013 
-0.00313062873619934 
0.001764210837302382 
0.02485808212318734 
0.0002465277338157563 
0.00696517528060536 
0.006811921272827455 
-0.01716444907117749 
0.005117396299861459 
-1.599866623796723e-005 
0.01071079138556318 
-0.007962763613522285 
0.0004411924662479662 
0.00162880495132196 
0.01103588997137207 
0.002063913120691518 
-0.002509958979542971 
0.01522579866902791 
-0.01160137887037256 
0.00544994181676618 
-0.01237640744779545 
0.02426449756572761 
-0.01072361801955743 
0.008487831894858392 
0.008936469910800719 
-0.007230476557920298 
-0.002321770182368637 
-0.01582095376313814 
-0.003944205269185582 
0.0008287444437832724 
0.02441211429118391 
0.0001809433145223672 
0.001102541427052696 
0.002770032158987887 
0.009018273012419786 
0.0358989544318947 
-0.01907233359573126 
-0.008849605993476417 
-0.01292168529746786 
0.02661885573397232 
-0.002298142934498174 
0.02941853216803142 
0.007230484586214891 
0.000968358740350819 
0.0176331374449433 
-0.00578775838490818 
0.009548600035712312 
-0.009561868044620605 
0.02680079753506205 
-0.009007871752585692 
0.01202324977504069 
0.01326755890856868 
0.01723139011368454 
0.01870339494732435 
-0.002025213639127075 
-0.004043672330648995 
0.02142706509922886 
0.01496388094818246 
-0.01199770331593955 
0.004092066851263393 
-0.001279346673029876 
0.0126245313614017 
0.04327466925344833 
-0.01254666970704946 
-0.006722276358390887 
-0.01077170031618157 
0.03047242047530794 
0.0014563571066433 
0.01963382458379349 
0.00398212790308993 
0.00430530086513854 
0.003664348108313824 
-0.01581211787791446 
0.01258782340388375 
0.01217000879926881 
0.02324980113268542 
-0.01751453544909358 
0.05126145408813747 
0.01225579161250669 
0.01914947230944544 
0.02233891873056546 
-0.002029711728336733 
-0.002167444935239269 
0.02410756626734372 
0.01669788905244221 
-0.01004457473196074 
0.006326461746673225 
0.002198744512737091 
0.002402696223096067 
0.01823246187562934 
-0.001166782825463312 
-0.01683165647257049 
0.02045110230324341 
0.01818935010282344 
-0.009931098084147549 
-0.0180234739930916 
0.01478793662466197 
0.005192246726198087 
0.007115533659541039 
-0.01174328317872565 
0.01577517852617406 
0.01641553131678283 
0.02532151657540833 
-0.0154235535529309 
0.04766126171448776 
0.01177556909778561 
-0.01533845685399991 
-0.04461358603909378 
-0.007937167395422846 
0.008988982181476707 
-0.003889300975665496 
0.003959613104262835 
-0.01353326315799335 
0.05340797153328096 
0.02319521725908524 
0.003166969311131876 
0.01822040990480008 
0.001044014992043616 
-0.01959195872966445 
0.02127625358475832 
0.01986382422708506 
-0.00873125530798319 
-0.01289079583628868 
0.01533849277566933 
0.01147264045382989 
-0.01254792356655167 
0.00717887112152 
0.005385079263382488 
-0.008925849685834165 
0.004355893611312301 
-0.007831942546577292 
0.001361009571770153 
-0.03131490870054585 
-0.01402865395805045 
-0.0416173556050477 
-0.00749992603610454 
0.02092383100188018 
-0.004285788063629533 
0.01231116375621897 
-0.01118321891521977 
0.0501928729429519 
0.01878547047670068 
-0.01124134427120638 
-0.01894139034059698 
-0.02089340114482594 
0.0003410949583602844 
0.006146952255160055 
0.03147899533370325 
-0.01010064551242009 
0.0203878225610924 
-0.0001406800189468743 
0.008326467838423378 
-0.01066985389435545 
0.005158045348968835 
0.0006612727039590372 
-0.01026605542402826 
0.005927144108716085 
-0.004808633338195839 
0.000199104539981398 
-0.03183718712497002 
0.003254122110841562 
0.01208708088227945 
0.0007550642107714584 
0.008210022865916961 
0.02071080057271048 
0.03464432423150536 
0.000525944258501493 
0.006181902008224041 
0.01081285905357814 
-0.01549232890792939 
-0.01779202831732778 
-0.02039175904544466 
0.007897328797308471 
-0.002274796789666441 
0.02667812331584022 
-0.01360216197536473 
0.008795570865280732 
-0.002862690298487474 
0.009197641067659553 
-0.008798099409899868 
-0.01423495482844175 
-0.03221285701548735 
-0.01197033433889293 
-0.008678006197252394 
-0.008731626508235441 
0.002600971040597096 
-0.01711756846152408 
0.0008007118359956182 
0.01030726520443502 
-0.0009411113629347104 
0.01346015980905874 
0.01815033598295031 
0.03217235741704919 
0.0003809423918363232 
-0.0005804534905903117 
0.008887571344523776 
-0.006677824215809238 
0.01279760818196835 
0.004628324219299886 
0.02104019668757055 
0.003258654017175083 
0.01129556888258409 
-0.006689941889369888 
0.01509874774783533 
0.004677153690576998 
0.001750370779456888 
-0.01461009823639391 
-0.01607464772475652 
-0.0337007715245155 
-0.01362621957310342 
-0.009612905931813147 
-0.01091226661610233 
-0.003534959826750992 
-0.01799708534126251 
0.005144930758142929 
-0.003057670507652392 
-0.009768962664165475 
0.003816832672059553 
-0.001856051151612949 
0.002255158483357777 
-0.01078304593276038 
-0.009110387121765182 
-0.003110644070685236 
-0.009958811480378905 
0.009257009002954888 
0.001489127193236336 
0.01610818154085714 
-0.00124343905300706 
0.00766787858484912 
-0.009017426055763545 
0.01412481193022899 
0.000509136038195031 
-0.005502998315007459 
0.004747005396938802 
-0.003007669586569996 
0.02458302666468824 
0.02070876029695087 
0.01884382092091938 
-0.01478939212009272 
0.008801054377533559 
0.008455512786713608 
0.0009861846939566118 
-0.006329455163996875 
-0.01341486617604058 
0.001905977647625638 
-0.004995557291731242 
0.0006885950905850058 
-0.01445396889056546 
-0.0124541327833466 
-0.005399146875817617 
-0.003862560737432164 
-0.01841048197466194 
0.0005394259426303074 
0.02354707563480855 
0.003183072831658832 
3.876780581367955e-005 
-0.01396257196568958 
0.006547478691206432 
-0.005101085513839905 
-0.006114591617617154 
0.0045105964670905 
-0.003130227291975141 
0.01645801934141085 
0.01230832682474592 
0.01930629823254993 
-0.01383866901891006 
0.009227257423681566 
0.005671433212807469 
-0.01237107307035744 
-0.01809411480413306 
0.002595882395360414 
-0.0006901013945956537 
-0.003074161758891681 
0.006045915815429763 
-0.007507121760748869 
-0.003659484666511649 
0.01361407762336666 
-0.004550714599407551 
-0.01843949974322235 
1.180200882818798e-005 
0.02854495858366178 
0.0007504939283583536 
-0.0004591504946922252 
-0.01505179333667151 
0.009475871697723008 
-0.003695658255235266 
-0.004834387867015984 
-0.02106569984789634 
-0.01946099702646918 
0.009823312792196746 
0.01910377128490875 
0.01445995087888046 
-0.02327643983935461 
0.0234474456624241 
0.01663163704210213 
-0.01073256398314161 
-0.02000884166437897 
0.005651191820015314 
0.0006198478555622055 
-0.001510149849493163 
0.007112465053610265 
-0.005793768417481811 
-0.001653508812084564 
0.0152116185324871 
-0.0125212981337583 
-0.009788837254903836 
0.006331378132438331 
0.007041149680032569 
-0.00210828628356115 
-0.001359385863234848 
-0.003976999884088409 
-0.0009278536416979015 
0.007833058230374088 
0.0006275224808740594 
-0.02051509542484341 
-0.01727245701284575 
0.01148234892251806 
0.02091972514440023 
0.01563141631316175 
-0.0102130849891485 
0.01329783920369351 
0.006140482600907032 
-0.002892806215371295 
-0.01291931216966337 
-0.008815095769235089 
0.004986964572083425 
-0.01120604368708557 
-0.01221129499016531 
-0.01209068897325623 
0.01431346951297088 
-0.001440657554109862 
-0.01175128559538411 
-0.008950238905979402 
0.007984914843936658 
0.007303768153146211 
-0.001722825156153483 
-0.0004991808889731479 
-0.002547408610862576 
-0.00030022375711319 
0.00823101706197518 
-0.01280298799578847 
-0.01836639952346178 
-9.072065335270579e-005 
-0.005760633721200857 
-0.01919618811243146 
0.001084265228067306 
0.0009074187266682086 
0.0006742355077644243 
-0.008706138058313426 
-0.001662140975259022 
-0.0118978141003182 
-0.007364760612549426 
0.006736252692805904 
-0.01020457216722681 
-0.01077649321291642 
-0.009546461444705464 
0.008461156087464143 
-0.0007996665933751338 
-0.004527417399095211 
-0.008181960802399657 
-0.007353690801072395 
0.01051037067104413 
-0.009668437296078632 
-0.003461697542036916 
-0.007035428369740366 
0.01387596915454393 
0.0103884610280015 
-0.01224059869636075 
-0.01779609427782932 
0.0007712240558288241 
-0.006993343672576385 
-0.01838140834939206 
0.00279558391161157 
0.002318662956051764 
0.003565317594518691 
-0.007946249756774016 
0.01899253169376063 
0.001343763709932044 
0.006576251770361884 
0.02136357801831995 
0.005515776720631272 
-0.0100427720539134 
0.001606231533967641 
-0.009973992953530119 
-0.002390630919770018 
-0.004074852175787684 
-0.007785227052503832 
-0.00684641318370996 
0.01165504135088701 
-0.009446056300672051 
-0.002812155637941022 
-0.006166371302990902 
0.01392392569111073 
0.01151320166910784 
-0.001558012838113938 
-0.002119235331346653 
-0.02141892256865313 
0.004160927017481015 
-0.0003660164962930024 
0.009929464218408693 
-0.01342685475264843 
0.01489231421660254 
0.02736636417560049 
0.0171157823238949 
0.0005733651316455593 
0.004625221626512884 
0.02443641743776598 
0.007058395335626083 
-0.008955983446888973 
-0.0008048902734870455 
-0.009995881727878403 
-0.003939734692851025 
0.01372433223733775 
0.01294765694757385 
0.005204156364764006 
0.0442233450690623 
0.01316227288674628 
0.01065035079710777 
0.002779252908409741 
0.005766168913314157 
-0.0005731484346972514 
0.0001702888638208399 
0.0004526228159735814 
-0.02243336147231273 
0.005450150932221699 
0.0001142793154998184 
0.01238126540793711 
-0.009551884001389226 
0.01849762243781165 
0.02731815017585926 
-0.01024831722259917 
-0.0009325076321966194 
-0.01692364311675612 
0.01546890713084201 
-0.01454764776470333 
-0.0007122536146455907 
0.007486643892171443 
-0.004980355392070907 
0.005453815674546945 
0.001957893762974885 
-0.0013812128909011 
-0.006875574455188891 
0.02623577206583497 
0.001408097918271918 
0.0236126034577401 
0.01109887303459245 
-0.005839123149055101 
0.001768008658273984 
-0.006866146646566144 
-0.003270353695873037 
-0.01025687496788497 
0.003678529967796189 
0.007107833940889995 
0.0300974833788313 
0.006270164092772803 
0.01295039145012258 
0.01165962719138953 
-0.03626799073530145 
0.007706657269872763 
0.003028112905725446 
-0.004245830592317337 
-0.01038277561415773 
0.01916326194244084 
-0.0001390415073261786 
0.007458800531768225 
-0.001292462261254202 
-0.003001003487188152 
0.0031277983623479 
-0.01234185145160195 
0.0059222514900259 
0.009556796548598548 
0.009451670452282625 
-0.01205012311592642 
-0.008476016955031014 
-0.01658735128882072 
-0.004115101074216011 
-0.001509367988857355 
-0.007191279945963689 
0.004378340746593939 
0.009276283489200864 
0.03164041300166661 
0.008539934480665368 
0.01501718211733779 
0.0139794504480576 
0.01789446194057655 
0.04301991368955279 
-0.007827344678895424 
-0.00462093666018833 
-0.006801560647186043 
0.03706171906402506 
0.005879760412783344 
0.02457734966010667 
0.01585140771240118 
-0.00154639248407452 
0.005493902391971138 
-0.01033888640176839 
0.007378354084494906 
0.01150284393096303 
0.01154142719612082 
-0.009860080498900492 
-0.00663617259659696 
-0.01473633915638578 
0.007878900942110575 
0.01105497801269079 
-0.00311549289725265 
0.006144009501585781 
-0.0006017397454903546 
0.01381211166229949 
-0.009786690039124159 
-0.01164806204309912 
0.0134448157212606 
0.01793574458940467 
0.04369289280439626 
-0.00852285051407803 
-0.005388360342544263 
-0.007338166634739639 
0.03626923750796648 
0.004351854962855351 
0.02269252622008098 
0.01534263819315979 
0.008706555924603005 
0.008364147301837165 
-0.01085233357409393 
0.01619805259316213 
0.01622242721305725 
0.0322668810647708 
-0.01317970912447447 
0.03588189098876035 
0.02124773255108857 
0.006791176363906531 
0.009625400159599343 
-0.004163139272491401 
0.005528784078594599 
-0.001286727966232506 
0.01409417474959213 
-0.01002291353751631 
-0.01216434166446114 
0.01019965763765661 
0.007487647725434447 
-0.01290384225113616 
-0.006883631511696687 
0.002383739013031769 
0.002129446734154924 
-0.01085355655920927 
-0.004365211163102168 
0.01316012847198213 
0.01385961689240974 
0.007877995753696443 
0.007519281075413419 
-0.01127177306954806 
0.01542156629488767 
0.0154286618701023 
0.03220539527237921 
-0.01397026692293403 
0.03352806053765213 
0.01886767149360801 
-0.01682212917819482 
-0.04402626133616545 
-0.01074710228761104 
0.0398348155728275 
-0.008475109873979619 
0.01238129641599106 
-0.01417719016685608 
0.04610298493545476 
0.01681351062424955 
0.006654854373581983 
-0.01328805183488607 
-0.006847451267623228 
0.001490003183656609 
0.001531238847058049 
-0.01095130805024564 
-0.004059170138670355 
0.01007721563116147 
0.01218998057178235 
-0.001200212048247766 
-0.008313837435430316 
-0.01645198165006795 
0.01200822699660815 
-0.005624202278588432 
-0.003505578611896498 
-0.006843015210823013 
0.0164685389683 
-8.671402895467139e-005 
-0.01596430796468746 
-0.04332166859501074 
-0.009842814481813903 
0.04008868708794356 
-0.00767129177204751 
0.01230078451296249 
-0.01313380969052683 
0.04611723095186164 
0.01993444450286341 
-0.01729964041923507 
-0.01853325172595281 
-0.02102335114428604 
0.009822750788743472 
-0.001975824295249116 
0.0281727079484557 
-0.01467791595231803 
0.01319613701125087 
-0.003547486555470382 
-0.0004469615817002683 
-0.007392461763840483 
-0.01557089538568482 
0.01205337895633972 
-0.005389833211715728 
-0.002842715653133253 
-0.006028215915805488 
0.01608746224126575 
-4.765434621213259e-005 
0.006979019552179794 
0.007068167298876498 
-0.006253036795125229 
0.006859237784564597 
0.009029477493916879 
0.01051028448478453 
0.001405489965272661 
0.02054960834421374 
0.007097202260161829 
-0.01550517033775814 
-0.01829695644524454 
-0.02004228741873798 
0.008229226455499013 
0.00055845567809957 
0.03227539642627153 
-0.01399733058884884 
0.01245799575437255 
-0.002455334241630911 
0.009948679231737097 
-0.01128960456726766 
-0.01194211796867625 
-0.02802911522725434 
-0.01212362491806454 
-0.008532776533668749 
-0.009405434148449054 
0.003228161661646503 
-0.01779197260912044 
0.007976713069159928 
0.00805448556464901 
-0.005922570220079174 
0.007852771985546077 
0.008958773785819617 
0.01021609684676352 
0.001163261888764442 
0.02042127612365323 
0.007884379738281063 
-0.03059479347124439 
-0.01064849248999805 
-0.0002649355488929877 
0.02481884876687288 
-0.008961144068214244 
-0.008906336230649502 
0.01933114791070475 
0.01205786748275385 
-0.0003440445860008963 
0.007201140193536536 
-0.01251122472249019 
-0.0142201580496306 
-0.03154330082962398 
-0.01316280078126848 
-0.008951915583566152 
-0.01072150867971884 
-0.0001954971184611389 
-0.01762663118791101 
0.005334830293719456 
0.002163039716385284 
-0.008731983464164077 
0.002639449578537051 
-0.001871375093915909 
0.00423494799252319 
-0.0104532846200198 
-0.008876715524106356 
-0.001861730524163649 
-0.03172025852074917 
-0.01191800608901608 
-0.0022321971462565 
0.01874492532176965 
-0.009895075171927718 
-0.009993877340612406 
0.01586684856938998 
0.009804160176204155 
-0.002537085456269248 
-0.009692982969943871 
-0.01911912794734836 
0.001474229685519912 
-0.009114223734133438 
-0.02467608360725449 
0.00440199787334918 
0.01102902401728479 
0.01001564427290434 
0.0112678027152915 
0.001700367149368901 
-0.007758062407633303 
-0.0121784657994052 
0.003120481929856259 
-0.004760284634783753 
0.0009647523069190587 
-0.01404008740204579 
-0.01186253147540688 
-0.00460324463980282 
-0.003711981050175754 
-0.01782503909099796 
0.001133932373042052 
0.02448489918394189 
0.005782952857255963 
0.0007772564174703515 
-0.01333972714418812 
0.008787258709100009 
-0.004620569346328924 
-0.01289946651817254 
-0.02043040174211159 
-0.002762043440138375 
-0.01350316194245676 
-0.02667881994367576 
0.001082826994613304 
0.007391957411764761 
0.01389359507035021 
0.0054521327470282 
-0.01819879507976953 
-0.002098084959920607 
-0.01095858954931049 
0.001579078151769656 
0.002852847495195151 
-0.006721511745890962 
0.007966070178091709 
0.01220152984487226 
-0.01232097378222316 
-0.004856004667897438 
-0.01808558284401972 
-8.852269235785633e-006 
0.02857958427401319 
0.003247363049168215 
-2.174139780792932e-005 
-0.01543547550883239 
0.006751089513941991 
-0.002855339922859349 
-0.006078776796889647 
-0.02053977283217102 
-0.01934347297491726 
0.008237140336967756 
0.01780761795088064 
0.0136365155735032 
-0.03074842210245887 
0.02889448238810066 
0.02173393604617389 
-0.0185349089006038 
-0.002868388953930431 
-0.01073465959672795 
0.001424619560042464 
0.001963728371535565 
-0.007986049455921214 
0.007224424451634045 
0.008838836238757938 
-0.01293043692592545 
0.007816464447400504 
0.008813681225959578 
-0.008964208511201626 
0.008819305607046565 
-0.006841770471282004 
-0.002085451073766704 
0.006494311044487996 
-0.006982016347215602 
0.02346450724900919 
-0.004194461747298779 
-0.01935177484040517 
-0.01713073451227736 
0.009898976486633085 
0.01693950257171351 
0.01415958787582838 
-0.01165562747858927 
0.01603921399524852 
0.008344177937743016 
-0.00526164548721369 
-0.01179350024668809 
-0.00872678840457383 
0.004840442214019343 
-0.01105400386215666 
-0.01536899861189412 
-0.01712171611869013 
0.01518780545511776 
-0.002649566396158539 
0.01044296437166661 
0.00643517061708274 
-0.007104861257269881 
0.01116329900006155 
-0.005397671515948253 
0.0006353996080770395 
0.008580024126232985 
-0.004871263744590335 
0.02670095209096426 
-0.00336638427481531 
0.005446056655174687 
-0.002987486725630479 
0.009211176312604066 
-0.00180735558766272 
0.0005595198432162146 
0.001548376459396685 
0.004676532289501999 
0.02077884524003495 
-0.005734964864920172 
-0.01247275477129592 
-0.009561549572874585 
0.003860512524076078 
-0.01165036411838076 
-0.01529829088953563 
-0.01750359060305897 
0.01342833612033571 
-0.003080346465271874 
-0.006951097050480624 
-0.009193944512566851 
-0.008382336620037451 
0.008669884232898143 
-0.01104039908908342 
-0.00627229993883285 
-0.01079450302355961 
0.007963093700545413 
0.007686979546341802 
-0.003692433307189465 
0.007008712840155354 
-0.003809314524182454 
0.008730299656866825 
-0.002170595008045287 
-0.0001513062456765914 
0.004352069052393316 
0.004192101092972403 
0.02032373473531658 
0.001496387506903135 
0.009831702029571215 
0.0006621789979877554 
0.01044888440742829 
0.002631692572792946 
0.004136647064376068 
0.0009644269571238037 
0.002832616578693308 
0.007653858274341997 
-0.00557614527495279 
-0.00933024941563813 
-0.008819356527283384 
0.009851199340672081 
-0.01125857093637237 
-0.005156725894157188 
-0.01291448874345418 
0.01222110858454946 
0.009818924480637965 
-0.005353819551103081 
-0.003583220991964758 
-0.0209352916794255 
0.003053170693215052 
-0.003576838505513149 
0.007120244039827803 
-0.02267074408274829 
0.007021255831236528 
0.02168874887330019 
0.004652742713526923 
0.01028997239819054 
-0.000554995879441781 
0.01121394878585004 
0.003018911388904877 
0.004668478699784854 
0.0007298492657274037 
0.002400250283713119 
0.0104724934848555 
0.008347602486038899 
0.0123197102748588 
0.002022284850010732 
0.01126313847555728 
-0.005925204483833474 
-0.004551825467695725 
-0.000566012883674575 
0.01048656010016458 
-0.001238170071902124 
-0.0040105721495467 
-0.002396966839953363 
-0.02402407306233243 
0.005785476571847702 
-0.00165825231383961 
0.01219656807957131 
-0.01917408052444553 
0.01280416447634634 
0.02037157507103812 
-0.0170902545193771 
-0.000123266054481075 
-0.01556624524319407 
0.02181085526820447 
-0.01750130303684359 
-0.002673179136755691 
0.002237977208876197 
-0.004788604597281893 
0.003912373552029487 
0.01030440747664489 
0.01188906106318722 
0.001226045131230724 
0.01155967077445745 
-0.003847999116295026 
-0.001656180119768359 
-0.002262224257858188 
0.01011259256215873 
0.001047775202365211 
-0.04157816725718769 
0.004389142611019618 
-0.0008747556525681822 
0.01923688423773287 
-0.03444482846426927 
-0.005356655785967959 
0.004121237945972661 
0.01591380042301444 
-0.008992586832849481 
-0.03534415476802595 
0.007120906385578447 
0.00267198524861498 
-0.004262392244686766 
-0.01044372898292704 
0.01641161939975483 
-0.0002785238624909279 
0.004345127257053898 
-0.002125504503675506 
-0.003561361910120822 
0.002189936527919911 
-0.0125084321595838 
0.006696999618754139 
0.008403599013521799 
0.00827125381359952 
-0.01065078181618624 
-0.008787565096067842 
-0.01650092294428003 
-0.02409885699855489 
0.02160404752541341 
-0.002137419671171959 
0.02001205014876113 
0.001371733066841142 
0.01131957754112888 
0.007007617520645076 
0.01469293568766656 
0.01376019534221599 
0.004622821267238887 
-0.002234865522212142 
-0.01743043708519606 
0.0184495617164553 
0.0149303486509337 
0.02214228828121795 
0.001455078037097997 
0.01577408002402706 
0.00781455214247879 
-0.002849052092982861 
0.004336534752909479 
-0.01048338276828327 
0.006998912834231582 
0.009963550093952533 
0.009066791225254016 
-0.008718452866251778 
-0.007007394323194095 
-0.0148180815706278 
0.006497259472039928 
0.009240092809353914 
-0.003287601007497292 
0.003974931648814129 
-0.002184516690453087 
0.01113202727863753 
-0.008684414364151082 
-0.01144565003851032 
0.009924284528210559 
0.005312288343325454 
-0.0002372476589623629 
-0.01540250250595335 
0.01865371856849469 
0.01515148958029537 
0.02154900282974238 
0.002286725472560089 
0.01763269071333443 
0.008812898274609293 
-0.002803869655202863 
-0.002539846713270763 
-0.01065733518228616 
0.01100680265381974 
0.01252732414578208 
0.02290997629374626 
0.007923995245871457 
0.02126494694156586 
0.01697181152170847 
0.004191758334563075 
0.008043257123124913 
-0.004615579835526789 
0.003135893301208488 
-0.004035565786382154 
0.009084688765050347 
-0.00942131458224745 
-0.01265682393299031 
0.008821367295478031 
0.003649128300084304 
-0.01376020887223804 
-0.007303360932701793 
0.001633858359005114 
-0.0007474998654065181 
-0.01139515679771753 
-0.004476807363886795 
0.01031059161666168 
0.01240182165511166 
-0.004390182482356192 
-0.004089439897073597 
-0.01223426155859519 
0.008217586969162596 
0.01040181820613391 
0.02018858989233449 
0.00611761795695636 
0.02079345894273336 
0.01421847521823917 
0.001095284247813868 
0.002399385399978213 
-0.01065842032819323 
0.0118541037110778 
0.005561790880696526 
0.0242933947751574 
0.004373648342328486 
0.0167562434800224 
0.009593769540163258 
0.004276291569340585 
-0.01305154107583165 
-0.00675882839291549 
0.002066948239312315 
-0.0002108182266178481 
-0.01081806743617919 
-0.003649266500886158 
0.01037027422835782 
0.01169402585556618 
-0.000659959935492297 
-0.008588679815988978 
-0.01562792899127791 
0.01231467143412125 
-0.005307545336816019 
-0.002396189510303997 
-0.006209451156963834 
0.01623619456565996 
-7.974249176488342e-005 
0.001646217872597985 
0.003104215456767471 
-0.01005479987807336 
0.01292002225032394 
0.006255263034137792 
0.02523629433480784 
0.00496909107000131 
0.01577277047362368 
0.01074907347676353 
0.02890911536419094 
0.00145914690263395 
-0.008100606825527351 
0.01525937924996919 
0.01212425971906326 
-0.004775599803777647 
0.008070377395839577 
0.004171120702730342 
0.0009292584499684127 
-0.002025175024392531 
-0.01023765139103835 
-0.01714313062666979 
0.01074851352869707 
-0.006198511523444123 
-0.004091615570338841 
-0.007696867665035143 
0.01436082894650854 
-0.001047330332050576 
0.002594682145403906 
0.002463404870588764 
-0.008787682304382049 
0.004185354135466529 
0.00523453896133512 
0.006459843207611523 
-0.002413786400359456 
0.01590783705365424 
0.003600343128367429 
0.02695543848417535 
-0.001193327236547164 
-0.01056312901190924 
0.01410784632079751 
0.01137467981627401 
-0.005768196828639634 
0.005566970583695562 
0.002187592776190545 
-0.0003345007821829449 
0.002668728980493368 
-0.01218431856257303 
-0.003988597056674369 
0.01647792609532863 
0.01406873379022332 
0.01117830690956116 
0.01301174336608723 
0.01409388723800241 
0.004601343067157947 
-1.547867516287033e-005 
-0.0007279124211554014 
-0.01245783501861346 
0.001642043047606471 
0.003007047819409415 
0.004607631483528081 
-0.005597010855234286 
0.01353216512007821 
0.001906089831749142 
-0.03817832634257369 
-0.01776051923738447 
-0.006326190566643675 
0.01617322668056906 
-0.01442377526116884 
-0.01479267096462974 
0.005117335692603846 
0.007629877236875144 
-0.008093583415086562 
-0.0007188427956032683 
-0.01658174600391301 
-0.008586587305740748 
0.01664214890673814 
0.01197674647749638 
0.009122964770179712 
0.008510242953108364 
0.01165463303234736 
0.002205420663259492 
-0.01210022659875061 
-0.01027705113048782 
-0.007048154625260591 
0.005823935594431131 
0.000568791599538967 
0.009024856994190443 
0.01306678564535439 
0.01797379984532093 
-0.001603485987836199 
-0.04118934093138628 
-0.02035241968154692 
-0.008141321615962928 
0.0128439223962566 
-0.01719994894505573 
-0.01697604737922762 
0.0002765492477250123 
0.005821145555877451 
-0.01112036641982344 
-0.01982410896566239 
-0.02822717834204435 
-0.007787612322910406 
-0.01445201707839643 
-0.03366873734774743 
-0.002308569264199529 
0.001795970231301761 
4.581107450468192e-005 
0.001993924937947109 
-0.01519197636524397 
-0.01292740274464989 
-0.01010854425326356 
0.002156427388207568 
-0.001368015584282172 
0.00697014596644678 
0.009486186886941283 
0.01006789067171007 
-0.004300183326636167 
-0.01261906292552182 
-0.02710019807855423 
-0.001722128620165105 
0.002010296984324818 
0.008034697059937089 
0.004334538472608207 
0.007971928112732724 
0.03688927364733376 
0.01094516065819498 
-0.02132250399564435 
-0.02942792009194211 
-0.008641274998920832 
-0.01834899591777648 
-0.03517099302195999 
-0.002613711273115091 
0.000774917097474814 
0.004620678714950764 
0.001158422423676718 
-0.02590999441006257 
-0.009482835264529685 
-0.01799062213935983 
-0.003044511846536035 
-0.003516397471988183 
-0.01048976407070884 
-0.0004084687178424754 
0.004577519576980881 
-0.01924960890649197 
-0.0137030947635861 
-0.02944416413695777 
-0.002941450261793208 
0.002062519304034644 
0.008039086536474333 
0.003419831889788356 
0.006362516428603682 
0.04812244687976051 
0.009697208805099378 
-0.009936565802219419 
-0.007581271583387313 
-0.006867783642276434 
-0.01534041503724734 
0.00999168084113224 
0.0008715505699392524 
0.008184450040944287 
0.009833375642671196 
0.006911630779939797 
-0.02509896896925635 
-0.008741912732274171 
-0.01740193022440896 
-0.002824156988712451 
-0.002505559335353441 
-0.009708511026853869 
0.0007501151379057231 
0.006283118874149493 
-0.01842713264245726 
0.000649571457544615 
0.01001959572037735 
-0.01536448543086987 
0.00369447075885451 
-0.01253152467022282 
-0.00560701144455259 
-0.0003226828232961149 
-0.01281191991469326 
0.01857709256847506 
-0.008759980395836312 
-0.007000143928063723 
-0.006455112919968935 
-0.01451743584618852 
0.01067603009515088 
0.002041395242701573 
0.009924471313834433 
0.01080728645260527 
0.009155101549371577 
0.006264111726831156 
-0.001094727108995452 
-0.0079341185626226 
0.005186631799153437 
0.01513388625243613 
-0.001815606306635607 
0.01033219278177279 
0.01357103173441782 
0.01908326103297003 
0.001644691497975927 
0.009030255799069912 
-0.01415757366536985 
0.00478590465424187 
-0.01159126418216551 
-0.004464274303716615 
0.0007265519642384425 
-0.01183679378293299 
0.01965009529805916 
-0.006724982206539591 
0.008670503133621214 
-0.01158253034425904 
0.003145369142034018 
-0.008117767430546995 
-0.007551781416339171 
-0.007557375824069103 
-0.001021899542002498 
0.01488781926916222 
0.0048062559770349 
-0.001652072704528385 
-0.007060435394497624 
0.001011528569306468 
0.01249572333764676 
-0.00245455038564438 
0.009813862106551097 
0.01355579348537569 
0.02096180363503719 
0.01714406693775071 
0.001773282216741993 
-0.0189748172013465 
0.01729483237547698 
0.02063913009678974 
0.01067694102926611 
0.002991359951444197 
0.008781724599423656 
0.008638951989478142 
-0.004968800532170426 
0.01049905946472241 
-0.009376856300370063 
0.005105807493772829 
-0.006075945550758935 
-0.005263769064364147 
-0.002244240560563637 
0.0008080139214843215 
0.01691316684351242 
0.001762290076282289 
0.00632208389264576 
-0.005223274240360605 
0.007592764134563606 
-0.001114759128689619 
0.0002783535133878966 
-0.005115663669088085 
-0.00132646081000452 
0.007986617827550387 
0.01797142733138188 
0.002360550702258228 
-0.01634606931897563 
0.01655293378233617 
0.02045680621235474 
0.01068471006875419 
0.004298233245191977 
0.01186113881389049 
0.009642572409491229 
0.01478577971062654 
0.006505828657411518 
-0.03045094115633273 
0.01615201270965262 
0.01245431494463424 
0.005153970637089203 
0.002160048683804569 
0.01221692882640305 
0.01722692139387722 
0.00190024605281695 
0.006493343557406629 
-0.00530554714536874 
0.008062261231824866 
-0.000561061037304847 
0.0008148068034840515 
-0.005390394579684753 
-0.001074590546620093 
0.007736363693771702 
0.005078478958365126 
0.007708196735349816 
-0.002714488920965318 
0.007702439445565056 
-0.007697575941602278 
-0.006233761432065156 
-0.005235900987890149 
0.006818229946915246 
-0.003177034030448424 
0.01563121881168994 
0.006160814124435861 
-0.03012101824756526 
0.01546540352837567 
0.01150172128372077 
0.004111613072462232 
0.002566801354021811 
0.01194501538471563 
0.01813626088695021 
0.01460327777534356 
-0.01331751212467884 
-0.01638126129664272 
0.006656719531664391 
0.002205958005326558 
0.01743899558068823 
0.00312819009081911 
0.01375246129416807 
0.004912140934605114 
0.003527104313935328 
0.005609035344837064 
-0.005176408449857487 
0.006354043883212754 
-0.009101749074067618 
-0.008131683022606362 
-0.007416101362753951 
0.005510139233665505 
-0.00473932738412561 
-0.04530536082365893 
0.002118510025406131 
-0.007146878077828937 
0.01366340003500405 
-0.03951153274600557 
-0.009768962818753198 
-0.0004685569670680678 
0.01057476428089112 
-0.01385635245500321 
0.01367564675852755 
-0.01487233165171493 
-0.01943023861263917 
0.008536587735680806 
0.0003128093197226744 
0.01636167931850461 
0.002243467222169336 
0.01207906558196474 
0.003610972809927044 
-0.04697709874412834 
0.02094251054742686 
-0.002007443075874077 
0.008806207545169739 
-0.03411862263338281 
0.01043753159770202 
0.002299337744868604 
0.01123847022975822 
0.01534712925538049 
-0.0309090695990871 
0.01423345712019414 
-0.003751352904502325 
0.02006315179885729 
-0.00254368518791724 
0.005559006548008837 
-0.001213615652000481 
0.00841605104690977 
0.007969090496478771 
0.0001385393860593454 
-0.004714459713928563 
-0.01906661213942205 
0.01071068213894863 
0.008053783866998582 
0.01340140877237336 
-0.004198565893937228 
0.007161067421098033 
0.003219814241219828 
-0.005512453987802273 
-9.716568067166202e-005 
-0.01433152014291249 
0.001937367652517387 
0.007419271185922 
0.0006166977813772815 
0.001738513069642704 
0.01234101690382443 
0.0008633187454040711 
0.01034409517645134 
0.01089559027881474 
-0.008519479200111136 
0.01989948239451691 
0.01971522895257106 
0.003718286799809212 
-0.008454091812882821 
0.01327244879459039 
0.004894262809452931 
-0.001059497647421951 
-0.006255715382157513 
-0.02006698453244093 
0.007706835839198012 
0.004805759048424379 
0.0109407571945178 
-0.004246671006543258 
0.00796906078412671 
0.001800400915671078 
-0.00997750995731393 
-0.009266105136191701 
-0.0154314980561932 
0.002906560998411301 
0.003319568589433685 
0.01188817091891062 
0.001373037327643282 
0.009253958582136479 
0.009808184446516131 
0.005289733565486194 
0.007594902572070814 
-0.0144822920290158 
0.01702071663776884 
0.01509221857866232 
0.0007709430801608056 
-0.00961123810203799 
0.01111292746970479 
0.002641357157182938 
-0.008142520964609946 
0.01889087503519253 
-0.001564530519343359 
0.01080785739083816 
-0.005022370085569191 
0.01185873368588313 
-0.01040621507268161 
0.00169580286286738 
-0.003096017784815515 
-0.01162390409406739 
-0.01130738886876587 
-0.01684672740983028 
0.0007626606838531025 
0.00115886564554684 
0.008529062206257421 
-0.0009505050567323882 
0.007806371715649239 
0.005910299417501273 
-0.004913817350526448 
-0.003370911142290533 
-0.01509529363441757 
0.005282299953870239 
-0.002618221844079048 
0.01360185364468609 
-0.001121499689886582 
0.006002982458615785 
0.0007775171389406493 
-0.009948656859271049 
0.01241698570326531 
-0.001519540389326912 
0.008314503658692688 
-0.007207954444271853 
0.009749779907270448 
-0.01211360889484296 
-0.0002444156601616019 
-0.005535198183487041 
0.004695814388266483 
0.004464695241245331 
0.0003734371811756362 
0.0179387563354297 
-0.002370505098230401 
-0.008873195413758125 
-0.007287324595596302 
0.008370643825533073 
0.01227277773910647 
-0.005338609779179659 
-0.00400449680068493 
-0.01453131287485228 
0.002568242952519706 
-0.001807327606346163 
0.01452963502978698 
-0.00149252311507976 
0.004244948219318972 
0.0001952086167438126 
0.01801718890967029 
-0.004652844370918242 
-0.01211766660665795 
0.0002416275162037129 
0.003185825635060232 
-0.01142492262565347 
-0.0007260663724959247 
-0.006260383599697736 
-0.007273917106748958 
0.005016282000497564 
0.001639646122536955 
-0.002505457027461005 
0.0194217578361954 
-0.002157991615297704 
-0.009151916577391801 
-0.007733326666665801 
0.006873663090732429 
0.01345665043338985 
-0.004549576237743833 
-0.001578555191050863 
-0.0002869496409183898 
0.01593418093923591 
0.006602170197867022 
-0.007735557255548776 
-0.00375145794037056 
0.01231549056304473 
0.01443228388837243 
0.01865804099744515 
-0.006136239497376945 
-0.01368699018203591 
0.00233524810397721 
0.004882370660602802 
-0.01113907029799448 
-0.002523656350007652 
-0.004460157582536269 
-0.005945096906157191 
-0.003465190034694272 
-0.01568507289750688 
-0.007411356496843668 
0.005686427022408288 
0.004537900590831675 
-0.001900456958369943 
0.007316768599936111 
0.001525450502428547 
0.0005868107486264147 
-0.005191185054520051 
-0.001460257588434566 
-0.002511273687385879 
0.01732248248208999 
0.006788574799042262 
-0.00803537386228249 
-0.004194737237787441 
0.01232240966026521 
0.01554186233180724 
-0.00212984017491496 
-0.008855867430808611 
0.002758717743347717 
0.00980462489563611 
0.008570363515987283 
0.004305845046739956 
-0.008969856179675712 
0.01210510930725115 
0.0002379619433918222 
-0.00451594043222236 
-0.01790173619751918 
-0.008784607023248285 
0.007565082866996014 
0.004446171456153368 
0.0004336340981576931 
0.00537276295386297 
0.0005560198151021568 
-0.0003551720140055161 
-0.01307722378385619 
-0.01028053165051381 
-0.008610099013007445 
0.0005057455500696928 
0.0001394673690211334 
0.006777236651077787 
0.01069673270648352 
-1.66292857116594e-005 
-0.002962607236830348 
-0.002377845723003462 
-0.01094101889794222 
-0.002099939054929459 
0.009916161619775999 
0.009660141107230916 
0.004349293594080286 
-0.009425995410257532 
0.01125893533633029 
0.000360205982153135 
0.006989149688009283 
-0.01237349150120894 
0.003546847630669997 
0.004870257722729528 
0.00820075132939746 
0.006856008254148243 
-0.002099133160084324 
-0.00989678890956606 
0.008805229536775101 
-0.01778647199531494 
-0.01438066833639465 
-0.01190907480712723 
0.002107616004141316 
-0.003672735041977859 
0.004848160955372009 
0.005839354239298585 
0.001523150738427164 
-0.005055372105838395 
-0.01445607476676266 
-0.02940272602912468 
-0.004124897325659425 
-0.0007709109281620511 
0.003688063298719654 
0.002959774319160892 
0.001854519081363626 
0.003381610998674844 
0.004964954402030259 
0.002537707824331932 
-0.01670202129537255 
-0.0006734213757415813 
0.001258512112705384 
0.005552157762817488 
0.003907636352263465 
-0.005055885382271761 
-0.00936929059991316 
0.008038706843422078 
0.002677687400549938 
0.003490472722218844 
0.005796737360681089 
0.006381986291077451 
0.004087487828121114 
-0.002000931048146927 
0.006454246589265432 
-0.005270515181557115 
0.002859258707056609 
-0.01753543601848565 
-0.03489860783175478 
-0.007824145066206049 
-0.003196257277621862 
0.002159254356591437 
-0.0005071834875466393 
-1.197603594777641e-005 
0.01809425245698054 
0.004857675578585303 
-0.01767090141666563 
-0.01276171020987741 
-0.01043274533177426 
-0.01570068985584708 
0.003888321885055037 
-0.005572308616326841 
0.002463141589990328 
0.0007953036681205613 
-0.0003799836755863679 
0.001670127646733627 
-0.00451784084371901 
0.001567868163814808 
0.008825583806795063 
0.0004569003903133898 
-0.004871558476904615 
0.003436744974458652 
-0.003233327358923649 
0.003311058602627005 
-0.002868981467954267 
-0.006711959605923008 
0.002536577401495989 
0.01513531023007882 
-0.01839054865760792 
-0.03815756473320864 
0.0002048443035445189 
0.006059541378422083 
-0.002860978427699728 
-0.01786264327857354 
-0.01438976982836765 
-0.01224528192964024 
-0.01778350290184359 
0.003604655638844113 
-0.006461411542738525 
0.003344222523723781 
0.002877203793004076 
0.0001689738594057373 
-0.002098386163691945 
-0.007511505510398384 
-0.01525849201832015 
-0.000667245283106431 
0.007434686976510605 
-0.008981315445409597 
0.004599756858357698 
0.00416744817723692 
0.01057564547534276 
-0.005578046007806451 
-0.008166422332408959 
0.000721411426157329 
0.01467376456966729 
-0.01982809557277042 
-0.03911062949681542 
2.799979056469922e-005 
0.00428631675763394 
-0.005905750327741492 
0.00715141735447873 
0.01359169303888994 
0.0004226897578955709 
0.002681046611594773 
0.008444680120087839 
0.01567645099684763 
0.004294401734163567 
0.02748995459184601 
0.001976924886781755 
-0.002139884084615346 
-0.007368772980645729 
-0.01451062117017138 
-0.0008080547671262681 
0.007255320451564214 
-0.008485178776509901 
0.00488631754765437 
0.003952663670196139 
0.0105421887386858 
0.009857830153824826 
